%YAML:1.0
my_svm: !!opencv-ml-svm
   svm_type: C_SVC
   kernel: { type:LINEAR }
   C: 1.
   term_criteria: { epsilon:2.2204460492503131e-016, iterations:100 }
   var_all: 132
   var_count: 132
   class_count: 4
   class_labels: !!opencv-matrix
      rows: 1
      cols: 4
      dt: i
      data: [ 0, 1, 2, 3 ]
   sv_total: 6
   support_vectors:
      - [ -3.27612297e-003, -1.95823447e-003, -2.26841556e-004,
          1.92638580e-003, 4.00478905e-003, 4.55253199e-003,
          3.80887347e-003, 2.95581273e-003, 2.34280969e-003,
          1.07867585e-003, -6.33305288e-004, -2.45171180e-003,
          -3.72265838e-003, -3.76929878e-003, -2.97565805e-003,
          -2.16805679e-003, -1.66375004e-003, -2.54037627e-003,
          -2.69866921e-003, -2.25599669e-003, -1.57449953e-003,
          -8.22905859e-004, -2.11033644e-003, -1.21000758e-003,
          -3.76847252e-004, 2.53516249e-004, 9.88847241e-005,
          -1.04061910e-003, -6.06089772e-004, -1.81540978e-004,
          2.27172350e-004, 8.84866982e-004, 4.89375670e-004,
          2.33222800e-005, -4.31983266e-004, -9.76582640e-004,
          -1.20840489e-003, -1.47754746e-003, -1.00952876e-003,
          -7.22658122e-004, -7.21872086e-004, -1.08992623e-003,
          -1.35599228e-003, -1.08695985e-003, -5.39988803e-004,
          -7.37943104e-004, -9.82541125e-004, -1.29426178e-003,
          9.78204608e-003, 5.73262945e-003, 2.46370072e-003,
          2.69783224e-004, -1.91751984e-003, -5.33963135e-003,
          -9.40382387e-003, -7.38643482e-003, -3.72815318e-003,
          9.87948966e-004, 5.48578519e-003, 8.52866005e-003,
          6.80854078e-003, 1.71721826e-004, -6.39401516e-003,
          -7.08866213e-003, 6.75843796e-004, 8.43418203e-003,
          3.50146624e-003, 2.18842691e-003, 6.81941863e-004,
          -5.47396310e-004, -8.90025753e-004, -7.15235597e-004,
          1.73453111e-004, 1.42755557e-003, 2.15082802e-003,
          1.24765176e-003, 1.81957905e-004, -7.10193010e-004,
          -9.94338421e-004, -7.57656584e-004, 4.12899681e-004,
          1.83130521e-003, 3.13184806e-003, -1.47252390e-003,
          -1.88699341e-003, -2.12790794e-003, -1.95008714e-003,
          -1.69559859e-003, -1.82008534e-003, -2.14426196e-003,
          -2.33884132e-003, -1.90594676e-003, -1.18944072e-003,
          -1.80277484e-003, -1.67149247e-003, -1.56364834e-003,
          -1.56324543e-003, 2.19947993e-004, 4.58444192e-005,
          -2.07608864e-005, -1.31501743e-004, -1.04406266e-004,
          -1.28100580e-003, -2.46558408e-003, -2.86719250e-003,
          -2.48925341e-003, -1.29308843e-003, -9.48403496e-004,
          -2.85928091e-003, -3.24495672e-003, -2.74825026e-003,
          -1.65452866e-003, -1.38084521e-003, -1.68111210e-003,
          8.06253962e-003, 6.27170270e-003, 3.65197705e-003,
          3.78394173e-003, 3.37954401e-003, 5.63199725e-003,
          6.89142244e-003, 1.96291762e-003, -1.56967959e-003,
          -1.92276307e-003, -1.05064246e-003, 2.81009800e-003,
          5.25795948e-003, 4.46346542e-003, 4.66644019e-003,
          -2.13444536e-003, -3.07415915e-003, -1.53246673e-003 ]
      - [ -1.00162916e-003, -2.38696841e-004, 7.13787391e-004,
          1.56332238e-003, 1.75917416e-003, 1.13769143e-003,
          1.48402440e-004, -1.11562945e-003, -1.65371550e-003,
          -7.90695893e-004, -6.12343894e-004, -8.22825590e-004,
          -3.76043754e-004, 1.27967237e-003, 2.61237472e-003,
          3.23226210e-003, 3.34391161e-003, -3.55198490e-003,
          -3.03320331e-003, -1.54763483e-003, 1.80593619e-004,
          1.76432077e-003, -1.11575506e-003, -5.16178145e-004,
          2.13843246e-004, 7.52291235e-004, 7.32284505e-004,
          1.51868665e-003, 1.36549387e-003, 1.10046170e-003,
          7.73533015e-004, 6.83185994e-004, 9.95198265e-004,
          1.42020290e-003, 1.25249464e-003, 1.01013749e-003,
          -1.01351703e-003, -1.04143971e-003, -4.51581174e-004,
          -5.39262895e-004, -7.10618333e-004, -1.12778274e-003,
          -5.60355780e-004, -7.51082320e-004, -2.31501486e-004,
          -4.43600293e-004, -4.33042762e-004, -5.91575459e-004,
          4.38131718e-003, 2.57298932e-003, 9.86576895e-004,
          7.09619198e-005, -8.03551811e-004, -2.82628206e-003,
          -5.56343747e-003, -3.70872417e-003, -1.87923620e-003,
          -3.88027722e-004, 1.22656405e-003, 3.11139715e-003,
          3.16081406e-003, -2.06869241e-004, -3.61882988e-003,
          -3.79264844e-003, -1.68244980e-004, 3.88240232e-003,
          -3.42813483e-003, -3.42350127e-003, -3.66810919e-003,
          -3.89300007e-003, -3.48047982e-003, -2.98909680e-003,
          -2.01746472e-003, -6.81515201e-004, 3.24432272e-004,
          -7.77675596e-004, -2.71525420e-003, -4.57645999e-003,
          -5.40620694e-003, -5.10019995e-003, -3.79776326e-003,
          -2.28448818e-003, -1.07092981e-003, -5.29630855e-003,
          -6.66784868e-003, -7.60115311e-003, -7.23076100e-003,
          -6.13587257e-003, -6.10101596e-003, -6.71202457e-003,
          -6.82717329e-003, -6.54567685e-003, -6.26273640e-003,
          -3.30034556e-004, 5.91817916e-005, 3.87261127e-004,
          5.66227303e-004, 1.30866549e-003, 1.35806354e-003,
          1.33938552e-003, 1.43656961e-003, 1.52653817e-003,
          -2.84035387e-003, -3.62001732e-003, -3.49025847e-003,
          -2.33909721e-003, -1.30576675e-003, -1.53923477e-003,
          -2.06889422e-003, -2.94926949e-003, -3.28330998e-003,
          -2.41473806e-003, -1.06840348e-003, -1.02713576e-003,
          4.90261475e-003, 4.54151677e-003, 2.96701724e-003,
          3.20384838e-003, 2.93239625e-003, 4.50560404e-003,
          5.08722663e-003, 4.42572869e-003, 4.24671359e-003,
          4.68501868e-003, 4.08883207e-003, 4.05372726e-003,
          3.78095382e-003, 3.39187495e-003, 3.60278692e-003,
          3.19456751e-003, 3.58901150e-003, 3.35195730e-003 ]
      - [ 1.11637183e-003, 1.34573039e-003, 1.56902918e-003,
          1.67125522e-003, 1.65978028e-003, 1.36604207e-003,
          9.00584331e-004, 6.65162865e-004, 3.22584732e-004,
          8.86913185e-005, 2.05089134e-004, 4.17020172e-004,
          5.15070860e-004, -3.32205195e-006, -2.78651947e-004,
          -2.52508878e-004, 1.10007550e-005, 1.63371605e-003,
          1.09386479e-003, 1.42361096e-004, -8.57396750e-004,
          -1.67619006e-003, 2.07486009e-005, -4.78343980e-004,
          -1.07762485e-003, -1.40646345e-003, -1.12658960e-003,
          -8.83879839e-004, -6.26794063e-004, -3.43098363e-004,
          -8.59909414e-005, 2.55692139e-004, -7.58665410e-005,
          -3.73118615e-004, -4.01625410e-004, -4.93998523e-004,
          6.34275959e-004, -1.52486187e-004, -9.61675600e-004,
          -1.19647349e-003, -4.45176498e-004, 1.89018334e-004,
          8.14767729e-004, 4.68370214e-004, -6.76617638e-005,
          -3.06700822e-004, 4.15136237e-005, 4.69150109e-004,
          1.90280622e-003, 1.50272914e-003, 8.94987083e-004,
          2.92788081e-005, -6.69967383e-004, -1.00413861e-003,
          -9.33645351e-004, -1.46847579e-003, -1.12258713e-003,
          2.13337873e-004, 1.74956047e-003, 2.15572538e-003,
          1.71004445e-003, -1.20433688e-004, -1.72092963e-003,
          -1.83344539e-003, 7.69997860e-005, 2.05972046e-003,
          3.95653391e-004, -8.46176234e-004, -2.19144858e-003,
          -3.18426802e-003, -3.33602959e-003, -2.99843703e-003,
          -2.42282380e-003, -1.99630018e-003, -1.43019308e-003,
          -1.19967759e-003, -5.18080895e-004, -1.58884068e-004,
          -2.17445675e-004, -8.20327434e-004, -1.06129481e-003,
          -1.10714708e-003, -1.17457123e-003, 4.94188024e-003,
          6.39884919e-003, 7.29938643e-003, 7.37927435e-003,
          6.83707232e-003, 5.73026435e-003, 5.77178458e-003,
          5.32941381e-003, 4.29800153e-003, 2.86734663e-003,
          2.49419361e-003, 2.19728914e-003, 1.91522017e-003,
          1.58906577e-003, 8.09878635e-004, 9.52564122e-004,
          1.08478684e-003, 8.18384113e-004, 5.54827857e-004,
          2.05621542e-003, 2.34800950e-003, 1.97520223e-003,
          1.02198054e-003, 1.03507366e-003, 1.26493373e-003,
          1.71180116e-004, 6.75914867e-004, 9.07802547e-004,
          3.46076704e-004, -1.73443434e-004, -7.51211410e-005,
          -1.96121377e-003, -1.09501975e-003, -1.09381617e-004,
          3.02192784e-004, -2.18631918e-004, -1.28940237e-003,
          -2.47002905e-003, -4.74235089e-003, -6.80233957e-003,
          -7.32734660e-003, -6.67353254e-003, -4.45659971e-003,
          -1.01656571e-003, -3.28995346e-004, -1.18405512e-003,
          -5.59822889e-003, -6.31011557e-003, -5.44619048e-003 ]
      - [ 1.58602407e-003, 1.07879913e-003, 4.65703575e-004,
          -3.32010793e-004, -1.24465232e-003, -2.05143006e-003,
          -2.50864099e-003, -2.88350089e-003, -2.91955331e-003,
          -1.70423463e-003, -7.47753598e-004, 2.53399252e-004,
          1.61838566e-003, 2.99871899e-003, 3.50940181e-003,
          3.46688600e-003, 3.27512762e-003, 1.12763466e-003,
          8.63215362e-004, 6.87898952e-004, 5.82145585e-004,
          3.85144696e-004, 1.55426341e-003, 1.19485299e-003,
          8.70413438e-004, 3.64374253e-004, -2.11066668e-004,
          4.07343468e-004, 1.21578705e-004, -2.49206205e-004,
          -7.02389865e-004, -1.42420619e-003, -9.22772160e-004,
          -2.23913812e-004, 4.87673009e-004, 1.14536192e-003,
          1.42309989e-003, 9.04597051e-004, 9.58971359e-005,
          -7.17817747e-004, -1.09664201e-004, 6.95876428e-004,
          1.20764226e-003, 3.40543949e-004, -5.85630885e-004,
          -1.21585897e-003, -4.11108107e-004, 3.84363171e-004,
          -4.66502039e-003, -2.87987804e-003, -1.50812720e-003,
          -4.54644702e-004, 7.58279930e-004, 2.39415560e-003,
          3.97653226e-003, 3.57295852e-003, 1.79806224e-003,
          -1.19110430e-003, -3.92986741e-003, -4.97263949e-003,
          -3.04707955e-003, -3.52152798e-004, 2.41048075e-003,
          2.75626918e-003, -8.91435426e-004, -4.24525421e-003,
          -1.97121827e-003, -1.47427304e-003, -9.67243046e-004,
          -5.51510428e-004, -3.11577372e-004, -8.94331606e-005,
          2.04869968e-004, 4.12977679e-004, 7.25952967e-004,
          2.25723852e-004, -6.81633595e-004, -1.49071636e-003,
          -1.83961669e-003, -1.87985611e-003, -2.02635303e-003,
          -2.15685600e-003, -2.32419302e-003, -1.71540759e-003,
          -2.17990205e-003, -2.84190872e-003, -3.15541890e-003,
          -3.11341812e-003, -3.40022449e-003, -3.40632419e-003,
          -3.14528542e-003, -2.84053991e-003, -2.92924768e-003,
          2.74709542e-003, 2.20818189e-003, 1.65347569e-003,
          1.11693388e-003, 5.88123803e-004, 9.79267759e-004,
          1.14830455e-003, 1.03667646e-003, 7.16634851e-004,
          3.69980145e-004, 1.08933030e-003, 1.17445481e-003,
          5.96859900e-004, 5.40170877e-004, 3.40127590e-004,
          7.40528689e-004, 1.16102258e-003, 6.60604564e-004,
          -2.35590327e-004, 5.49808465e-005, 4.08750522e-004,
          -3.81384231e-003, -2.48032785e-003, -1.18316559e-003,
          -1.24896434e-003, -1.23216945e-003, -2.45279749e-003,
          -3.46565782e-003, 7.68942875e-004, 4.26385272e-003,
          5.24936710e-003, 4.00748337e-003, 4.47638275e-004,
          -2.17171898e-003, -1.72546785e-003, -1.99146080e-003,
          4.10315627e-003, 5.68648195e-003, 3.91147565e-003 ]
      - [ 7.36235350e-004, 5.99432562e-004, 4.00846824e-004,
          1.13835689e-004, -9.13772747e-005, -1.45375423e-004,
          -4.39419309e-005, 2.86712893e-004, 4.67504433e-004,
          5.47591073e-004, 1.08907733e-003, 1.72406423e-003,
          2.07493664e-003, 1.51996850e-003, 9.06813249e-004,
          5.76862134e-004, 5.57933236e-004, 8.15294858e-004,
          5.07306366e-004, 3.62339779e-005, -4.40554228e-004,
          -8.51605670e-004, -6.20773499e-005, -1.73303983e-004,
          -3.14007571e-004, -3.32217140e-004, -6.13605152e-005,
          -9.83119360e-004, -7.78876652e-004, -5.41379384e-004,
          -3.09118943e-004, -7.57483125e-004, -7.01415702e-004,
          -5.63302368e-004, -1.50802196e-004, 1.90091348e-004,
          3.48568137e-004, -3.36561316e-005, -6.46831526e-004,
          -7.48307153e-004, -3.27697780e-004, 1.71680862e-004,
          3.64379783e-004, 2.58528540e-004, -1.56696289e-004,
          -1.01169710e-004, 3.35090517e-005, 2.79536122e-004,
          -2.45504105e-003, -1.29294267e-003, -4.62553842e-004,
          -1.97144313e-004, 1.78546557e-004, 1.37945637e-003,
          3.12392577e-003, 1.99000328e-003, 8.45629314e-004,
          -2.10167509e-005, -7.30746950e-004, -1.71162421e-003,
          -1.45231036e-003, -1.69644933e-004, 1.21392170e-003,
          1.48364424e-003, -1.43921468e-004, -1.81914319e-003,
          -1.25545892e-003, -1.68344507e-003, -2.10063998e-003,
          -2.29614903e-003, -2.10471731e-003, -1.64226000e-003,
          -1.20129436e-003, -1.04356767e-003, -7.43354554e-004,
          -4.26022860e-004, 3.94417613e-004, 8.70900461e-004,
          7.39041076e-004, -8.36033214e-005, -9.56706586e-004,
          -1.71813066e-003, -2.42773537e-003, 4.23641549e-003,
          4.78210859e-003, 5.13314642e-003, 5.10378415e-003,
          4.82498622e-003, 3.76386195e-003, 3.68707348e-003,
          3.46637401e-003, 3.08512268e-003, 2.61491537e-003,
          2.45195255e-003, 2.36749067e-003, 2.30230996e-003,
          2.23678001e-003, 7.09762622e-004, 1.09164952e-003,
          1.29874481e-003, 1.01766479e-003, 5.50219440e-004,
          2.34396267e-003, 2.87166331e-003, 2.73109926e-003,
          1.83780480e-003, 1.42780377e-003, 1.53609726e-003,
          1.21705374e-003, 1.68396090e-003, 1.69804669e-003,
          9.77020478e-004, 4.09894303e-004, 5.92909113e-004,
          -4.77616210e-003, -3.46352695e-003, -1.64384441e-003,
          -1.38926727e-003, -1.69622595e-003, -3.51456483e-003,
          -4.96062497e-003, -4.47333604e-003, -4.41299891e-003,
          -4.51145880e-003, -4.39258805e-003, -4.37967293e-003,
          -2.84016598e-003, -2.00699200e-003, -2.88603315e-003,
          -3.48576205e-003, -3.49265756e-003, -3.46334022e-003 ]
      - [ 1.24420563e-003, 9.40023863e-004, 7.01330428e-004,
          5.21170325e-004, 4.19218966e-004, 3.98147822e-004,
          3.85626015e-004, 6.54093630e-004, 7.84349802e-004,
          2.52638914e-004, 6.65182451e-005, 4.69079860e-005,
          -2.66489282e-004, -1.18722569e-003, -1.74156891e-003,
          -1.85896212e-003, -1.59827142e-003, 2.40045832e-003,
          1.86897663e-003, 9.24939639e-004, -1.04704850e-004,
          -1.03480963e-003, 3.68190900e-004, 9.18685910e-005,
          -2.90072814e-004, -5.53874939e-004, -5.17413428e-004,
          -1.09709834e-003, -1.00479578e-003, -8.30071978e-004,
          -6.00958418e-004, -1.10231864e-004, -5.81752858e-004,
          -1.09771581e-003, -1.23113638e-003, -1.34678220e-003,
          1.21968798e-003, 7.91787985e-004, 2.17386754e-004,
          3.44340083e-006, 4.77201684e-004, 9.34305775e-004,
          4.02792619e-004, 3.01758118e-004, -9.88747779e-005,
          -2.39050394e-004, -5.43608476e-005, 2.04504715e-004,
          -2.58299187e-005, 2.75083630e-006, -2.85074566e-005,
          -3.10643460e-004, -4.32646513e-004, -1.81669879e-004,
          5.05582662e-004, -1.50913213e-004, -3.27192218e-004,
          -2.25992426e-005, 3.93572234e-004, 2.33882820e-004,
          -1.21267592e-004, -3.07719223e-004, -2.88703653e-004,
          -3.15622950e-004, -2.15902008e-004, -1.54217953e-004,
          7.69501843e-004, 1.28534317e-004, -5.00357244e-004,
          -9.84235317e-004, -1.13265007e-003, -9.22407722e-004,
          -6.23904460e-004, -5.72607096e-004, -5.38813008e-004,
          -6.47984416e-005, 9.04883840e-004, 1.69266027e-003,
          1.97457243e-003, 1.58813153e-003, 1.06004160e-003,
          5.12663042e-004, 4.20275028e-005, 3.59712751e-003,
          4.67928778e-003, 5.38413273e-003, 5.34261204e-003,
          4.82968707e-003, 4.13757982e-003, 4.30254592e-003,
          4.19155229e-003, 3.87814967e-003, 3.46239191e-003,
          1.44098769e-003, 1.06535445e-003, 7.08023843e-004,
          3.60588747e-004, 3.38116442e-005, -5.67606003e-005,
          -5.48805947e-005, -1.20190467e-004, -1.00597565e-004,
          1.94156566e-003, 2.21947022e-003, 2.09831656e-003,
          1.44330761e-003, 1.26619509e-003, 1.40758231e-003,
          8.84712965e-004, 1.25368673e-003, 1.49365817e-003,
          1.09752419e-003, 6.05527719e-004, 6.52393035e-004,
          -2.13193242e-003, -1.76741229e-003, -1.04580005e-003,
          -9.70015069e-004, -1.10746210e-003, -1.87309564e-003,
          -2.51472928e-003, -3.37439822e-003, -4.24285978e-003,
          -4.56206407e-003, -4.06890921e-003, -3.04204761e-003,
          -1.55936636e-003, -1.23867090e-003, -1.66413735e-003,
          -3.48503748e-003, -3.93651193e-003, -3.40470090e-003 ]
   decision_functions:
      -
         sv_count: 1
         rho: -4.3165084164322396e+000
         alpha: [ 1. ]
         index: [ 0 ]
      -
         sv_count: 1
         rho: -5.5614557609745230e+000
         alpha: [ 1. ]
         index: [ 1 ]
      -
         sv_count: 1
         rho: -1.0814699208676721e+001
         alpha: [ 1. ]
         index: [ 2 ]
      -
         sv_count: 1
         rho: 1.1362714449979245e+000
         alpha: [ 1. ]
         index: [ 3 ]
      -
         sv_count: 1
         rho: -7.7095859031686054e+000
         alpha: [ 1. ]
         index: [ 4 ]
      -
         sv_count: 1
         rho: -5.4640219113523214e+000
         alpha: [ 1. ]
         index: [ 5 ]
