%YAML:1.0
my_svm: !!opencv-ml-svm
   svm_type: C_SVC
   kernel: { type:LINEAR }
   C: 1.
   term_criteria: { epsilon:2.2204460492503131e-016, iterations:100 }
   var_all: 132
   var_count: 132
   class_count: 4
   class_labels: !!opencv-matrix
      rows: 1
      cols: 4
      dt: i
      data: [ 0, 1, 2, 3 ]
   sv_total: 6
   support_vectors:
      - [ 4.88053862e-004, 3.21415137e-005, 8.82129476e-004,
          3.79991159e-003, 6.85446430e-003, 5.79849351e-003,
          2.97291507e-003, 5.80888765e-004, -1.72588311e-003,
          -4.53366805e-003, -6.41661324e-003, -7.78358383e-003,
          -8.67110398e-003, -8.48951656e-003, -6.67391485e-003,
          -5.08837122e-003, -4.18738276e-003, 1.67043821e-003,
          -4.40233038e-004, -1.13506475e-003, -1.11994299e-003,
          -9.39032820e-004, -3.76543752e-003, -2.05211993e-003,
          -3.24442575e-004, 1.16933370e-003, 1.17812178e-003,
          -2.34855595e-003, -1.35817751e-003, -2.88285170e-004,
          7.13214686e-004, -3.87645239e-004, -6.53137162e-004,
          -1.27099024e-003, -9.96022136e-004, -4.10010340e-004,
          -5.45170484e-003, -2.74806633e-003, 2.41406262e-003,
          5.95866656e-003, 2.52356287e-003, -1.89540046e-003,
          -6.49575097e-003, -2.40169605e-003, 3.80067690e-003,
          7.82029051e-003, 3.57325817e-003, -1.55535643e-003,
          2.96075940e-002, 1.29928524e-002, 3.46084870e-003,
          -2.70345190e-004, -4.02113423e-003, -1.29891504e-002,
          -2.88023334e-002, -2.39488333e-002, -1.38936536e-002,
          -1.31419860e-003, 1.17564667e-002, 2.27318928e-002,
          1.13802394e-002, -1.22668210e-003, -1.37532428e-002,
          -1.80022307e-002, -1.66720420e-003, 1.50395166e-002,
          4.08819132e-003, -6.36334298e-004, -5.64826000e-003,
          -9.74231493e-003, -1.07140010e-002, -8.22072476e-003,
          -4.76742396e-003, -2.05790065e-003, 1.28527568e-003,
          4.51006985e-004, 1.63123291e-003, 1.30571320e-003,
          -2.21235561e-004, -1.44163927e-003, -1.47148327e-003,
          -6.36334298e-004, -1.71680804e-004, 8.51224351e-004,
          -1.17758085e-004, -6.26183115e-004, -8.37242056e-004,
          -1.29259913e-003, -2.95364414e-003, -4.83385799e-003,
          -6.26723841e-003, -6.63964730e-003, -5.97151695e-003,
          -2.42254022e-003, -7.50458799e-004, 1.02943485e-003,
          2.67835637e-003, -4.27475479e-003, -5.46363089e-003,
          -6.02055946e-003, -6.15454093e-003, -5.46367606e-003,
          1.37563760e-003, -3.54209845e-003, -3.57791595e-003,
          -6.35756354e-004, 1.97097193e-003, 3.41885141e-003,
          -2.91211554e-003, -7.38043291e-003, -7.49971811e-003,
          -3.51175689e-003, -7.20543321e-004, -1.11728604e-003,
          2.25762930e-002, 8.49575829e-003, -3.41115100e-003,
          -3.98848997e-003, -4.01658285e-003, 7.87509978e-003,
          2.10886467e-002, 7.89587852e-003, -1.08881027e-003,
          -2.30456260e-003, -4.07346583e-004, 9.04632080e-003,
          3.77144851e-003, 2.18260568e-004, 2.79249530e-003,
          -3.78801837e-003, -4.66128392e-003, -2.98803300e-003 ]
      - [ -1.36087547e-004, -2.06275799e-004, -1.59653733e-004,
          -6.66640062e-006, -7.30985121e-005, -4.35138849e-004,
          -8.69793177e-004, -1.25063700e-003, -1.49590662e-003,
          -1.31665729e-003, -1.50016276e-003, -1.58596237e-003,
          -1.33776444e-003, -6.03799243e-004, 7.21877514e-005,
          4.13955626e-004, 5.10382000e-004, -9.14322736e-004,
          -1.02380814e-003, -7.17293820e-004, -3.06066038e-004,
          8.03898001e-005, -1.06504027e-004, 3.51169729e-004,
          8.32064718e-004, 1.17883959e-003, 1.07354403e-003,
          1.05311978e-004, -2.21276587e-005, -1.42076009e-004,
          -2.58039916e-004, -1.09483270e-004, -8.07856704e-005,
          -6.74035982e-005, -6.07475013e-005, -9.25318163e-005,
          3.12158925e-004, 2.76344799e-004, 6.58510835e-004,
          5.27917116e-004, 4.55983158e-004, 2.68631207e-004,
          -2.84380454e-004, -4.29127715e-004, -1.42342426e-004,
          -2.99589010e-004, -1.89627157e-004, -3.31156101e-004,
          2.20334739e-003, 8.88723531e-004, 1.39672658e-004,
          2.28086828e-005, -5.03540969e-006, -8.20623944e-004,
          -2.24295328e-003, -1.42741541e-003, -5.78237523e-004,
          -6.12783697e-005, 5.81506756e-004, 1.40809803e-003,
          1.66521047e-003, 9.68249515e-005, -1.47333625e-003,
          -1.79743406e-003, 8.03557050e-005, 1.94302632e-003,
          3.13012162e-003, 2.99992878e-003, 2.81337276e-003,
          2.62884656e-003, 2.71935528e-003, 2.78618070e-003,
          3.05154384e-003, 3.37118679e-003, 3.66251776e-003,
          3.45982704e-003, 2.85685994e-003, 2.46795546e-003,
          2.47700722e-003, 2.51767202e-003, 2.76342290e-003,
          2.99992878e-003, 3.23603186e-003, 6.99349213e-004,
          1.72447675e-004, -2.06463592e-004, -1.69215418e-004,
          4.70981104e-005, 2.54349929e-004, -1.53773071e-005,
          -7.45476136e-005, 2.90269003e-004, 8.69474781e-004,
          2.14727991e-003, 2.01809290e-003, 1.87349494e-003,
          1.69923971e-003, 2.51126871e-003, 2.37458665e-003,
          2.29927944e-003, 2.39691464e-003, 2.62023765e-003,
          1.85142504e-003, 1.06904528e-003, 1.13786722e-003,
          1.97158963e-003, 2.76910467e-003, 2.71396292e-003,
          1.96919474e-003, 1.21244427e-003, 1.10517011e-003,
          1.83197891e-003, 2.72713671e-003, 2.72752857e-003,
          6.06354512e-003, 4.77745384e-003, 3.21451947e-003,
          3.06227850e-003, 3.14903329e-003, 4.62476024e-003,
          5.80362324e-003, 5.73403295e-003, 5.90823218e-003,
          6.13577338e-003, 5.98199759e-003, 5.88992564e-003,
          4.32642363e-003, 3.71528626e-003, 4.22678655e-003,
          4.73576877e-003, 4.85321181e-003, 4.88523720e-003 ]
      - [ 3.89780507e-005, -3.32111413e-005, -1.69857973e-004,
          -3.08042887e-004, -3.35494959e-004, -2.32181585e-004,
          -1.19586206e-004, -1.36300499e-004, -3.13733995e-004,
          -4.91310842e-004, -4.81503026e-004, -3.52395873e-004,
          -2.49180972e-004, -3.14985256e-004, -4.64015728e-004,
          -5.77960978e-004, -6.43828243e-004, 3.96594842e-004,
          4.08648804e-004, 2.31975035e-004, -3.60432114e-006,
          -2.15657084e-004, -3.58604157e-004, -5.21164795e-004,
          -6.94816466e-004, -7.97525339e-004, -7.23492063e-004,
          -1.61324802e-004, -1.02614264e-004, -4.47442726e-005,
          1.04043866e-005, -2.51844758e-004, -1.50596534e-004,
          -3.22264168e-005, 7.62025520e-005, 1.72292886e-004,
          6.83991093e-005, 4.59669827e-005, -3.34114447e-005,
          -8.33840095e-005, -4.00943209e-005, 3.26522459e-005,
          -3.46573826e-004, -3.93401890e-004, -4.65640042e-004,
          -4.58516064e-004, -4.13303031e-004, -3.53346462e-004,
          -7.20301701e-004, -2.67208321e-004, -2.17366087e-005,
          2.91569249e-005, 4.03818776e-005, 2.81833869e-004,
          7.27488950e-004, 4.03288694e-004, 1.17804324e-004,
          9.41753933e-006, -1.06542451e-004, -3.95836338e-004,
          -3.39887978e-004, 1.34807560e-005, 3.17137630e-004,
          3.52978735e-004, 6.24114728e-006, -3.79610457e-004,
          -6.01389969e-004, -8.36774998e-004, -1.08324701e-003,
          -1.33905362e-003, -1.75422931e-003, -2.24287622e-003,
          -2.79680267e-003, -3.24896327e-003, -3.47529864e-003,
          -3.08101508e-003, -2.52537103e-003, -1.90838671e-003,
          -1.40531408e-003, -1.07706897e-003, -9.42397863e-004,
          -8.36774998e-004, -7.17615534e-004, -4.21347911e-004,
          -1.31264867e-004, 7.03444603e-005, 5.14215571e-005,
          -1.08953602e-004, -9.78889730e-005, 1.14812610e-005,
          4.93932203e-006, -1.87266778e-004, -4.40370291e-004,
          -1.09415338e-003, -1.12695841e-003, -1.14111474e-003,
          -1.14310102e-003, -1.36140303e-003, -1.27870822e-003,
          -1.25884521e-003, -1.28323131e-003, -1.36137917e-003,
          -1.02226145e-003, -9.72299313e-004, -9.44026164e-004,
          -9.16509831e-004, -1.07916060e-003, -1.08912238e-003,
          -9.48499539e-004, -9.79508157e-004, -1.02136692e-003,
          -1.10988633e-003, -1.15729042e-003, -1.13891577e-003,
          -2.30252882e-003, -1.95859047e-003, -1.55000959e-003,
          -1.51643646e-003, -1.54644053e-003, -1.95237075e-003,
          -2.31475173e-003, -2.50705611e-003, -2.78780120e-003,
          -2.98601994e-003, -2.79787043e-003, -2.51916656e-003,
          -1.85168616e-003, -1.74674217e-003, -1.82312715e-003,
          -2.32994603e-003, -2.54629483e-003, -2.36015720e-003 ]
      - [ -8.11218997e-005, -8.37085594e-004, -1.86193350e-003,
          -2.51577166e-003, -3.14745330e-003, -3.14592896e-003,
          -2.78271874e-003, -2.64394330e-003, -2.10352894e-003,
          -7.33975729e-004, 8.06679964e-005, 5.71743702e-004,
          1.43355213e-003, 2.86232191e-003, 3.09696328e-003,
          2.19516712e-003, 1.12115568e-003, 4.99067064e-005,
          -1.14460499e-003, -1.74064608e-003, -2.07204930e-003,
          -2.30238982e-003, 2.66368641e-003, 1.69243617e-003,
          6.85129722e-004, -5.26229269e-004, -1.91401865e-003,
          9.38009820e-004, 7.53368076e-004, 5.28631033e-004,
          3.16985883e-004, -1.42947503e-003, -2.42240436e-004,
          9.85453953e-004, 1.88765465e-003, 2.74135103e-003,
          1.01559761e-003, 1.96874666e-004, -5.45613293e-004,
          -1.18853222e-003, -4.10464738e-004, 3.45496344e-004,
          1.13009696e-003, 2.70453515e-004, -8.17828579e-004,
          -1.82266999e-003, -9.24902502e-004, -3.38413265e-005,
          -4.57216986e-003, -3.85569502e-003, -1.91847899e-003,
          5.86825423e-004, 2.95684719e-003, 4.61813062e-003,
          4.81008878e-003, 5.51095465e-003, 3.98145337e-003,
          1.74745568e-004, -3.58083914e-003, -4.95486567e-003,
          -2.64059147e-003, 8.87832022e-004, 3.94754671e-003,
          4.31639142e-003, 3.14959470e-004, -3.66530474e-003,
          -1.91214075e-003, -6.80721831e-004, 6.38490659e-004,
          2.32359627e-003, 4.34560841e-003, 6.17870409e-003,
          7.78535008e-003, 8.96597188e-003, 1.04041845e-002,
          8.54913145e-003, 6.15053065e-003, 3.62249115e-003,
          1.62604498e-003, 2.83113099e-004, -4.27560357e-004,
          -6.80721831e-004, -8.23811686e-004, 7.70390150e-004,
          5.39763423e-004, -4.97891051e-005, -2.56864849e-004,
          -3.67480650e-004, 3.32725293e-004, 5.46295254e-004,
          7.03433412e-004, 7.41152675e-004, 2.93279358e-004,
          3.18917446e-003, 1.80164597e-003, 3.39107879e-004,
          -1.15057034e-003, -2.69923056e-003, -2.43943022e-003,
          -2.15554843e-003, -2.37797387e-003, -2.54394393e-003,
          2.24768813e-003, 2.66009127e-003, 2.44589848e-003,
          1.50655850e-003, 2.27169623e-003, 2.24399730e-003,
          1.78470521e-003, 2.97767087e-003, 2.95376987e-003,
          2.53759976e-003, 2.61970679e-003, 2.50425679e-003,
          -4.54200781e-004, -1.50927249e-003, -1.95673527e-003,
          -2.05541821e-003, -1.96962734e-003, -1.63023721e-003,
          -4.94109350e-004, 5.32579608e-003, 1.03136348e-002,
          1.22695658e-002, 1.02169886e-002, 5.23188571e-003,
          -1.96433859e-003, -1.88987190e-003, -1.95856974e-003,
          8.55371822e-003, 1.16137201e-002, 8.61187465e-003 ]
      - [ 8.33990634e-006, -3.60391550e-006, -8.20128553e-005,
          -1.96315377e-004, -2.33470186e-004, -1.07882275e-004,
          1.78678620e-005, 8.96460260e-005, 6.73279574e-005,
          6.54302130e-005, 1.66584505e-004, 3.26915499e-004,
          5.14725689e-004, 5.51527599e-004, 4.56539186e-004,
          3.72372248e-004, 3.59939062e-004, 2.70949058e-005,
          5.94682388e-005, -6.90228917e-005, -2.38679801e-004,
          -3.82020080e-004, -1.44374557e-004, -2.23858573e-004,
          -3.08808871e-004, -3.41699139e-004, -2.37303844e-004,
          -2.45799893e-004, -2.92672805e-004, -3.39909951e-004,
          -3.75728239e-004, -5.40535955e-004, -4.07971180e-004,
          -2.44853407e-004, -6.92038739e-005, 9.41875551e-005,
          -1.56074675e-004, -1.43125508e-004, -2.33439481e-004,
          -2.00011302e-004, -1.89737621e-004, -1.36650298e-004,
          -5.23550989e-005, -3.57697645e-005, -1.05008308e-004,
          -5.11045691e-005, -7.73857828e-005, -2.33972769e-005,
          -1.58822129e-003, -9.68817039e-004, -4.33649315e-004,
          -1.05255742e-004, 2.70314486e-004, 9.30473849e-004,
          1.67840184e-003, 1.22467452e-003, 6.22037915e-004,
          8.92940534e-006, -5.89515956e-004, -1.17470173e-003,
          -1.01408770e-003, -8.69742580e-005, 9.37244273e-004,
          1.10916339e-003, -5.50980076e-005, -1.14570721e-003,
          -8.28778720e-004, -8.04764160e-004, -7.81954324e-004,
          -7.47011160e-004, -8.06899683e-004, -9.69769841e-004,
          -1.18472765e-003, -1.41135731e-003, -1.53006031e-003,
          -1.43942994e-003, -1.24490936e-003, -1.02965825e-003,
          -8.47698073e-004, -7.78531772e-004, -7.91878381e-004,
          -8.04764160e-004, -8.05382035e-004, -4.28474013e-004,
          -1.48536186e-004, 4.47519815e-005, 5.34973915e-005,
          -2.81023877e-005, 8.07302149e-006, 1.05221188e-004,
          1.16726085e-004, -1.04988540e-005, -2.02704570e-004,
          -8.43076152e-004, -7.98021676e-004, -7.48156686e-004,
          -6.90647110e-004, -1.28437742e-003, -1.12122227e-003,
          -1.02898560e-003, -1.09823630e-003, -1.24399900e-003,
          -9.38536134e-004, -7.73480104e-004, -7.70385901e-004,
          -8.87966482e-004, -1.14080287e-003, -1.15814526e-003,
          -8.66641989e-004, -7.21385644e-004, -7.08233332e-004,
          -8.63904075e-004, -1.10673532e-003, -1.10158080e-003,
          -3.00681498e-003, -2.63166730e-003, -2.02273531e-003,
          -1.97361154e-003, -1.99542800e-003, -2.57662241e-003,
          -2.92488444e-003, -2.49502668e-003, -2.26738025e-003,
          -2.27643992e-003, -2.29578977e-003, -2.54621427e-003,
          -2.47847708e-003, -2.23541469e-003, -2.40141060e-003,
          -1.89417682e-003, -1.84331369e-003, -1.97559269e-003 ]
      - [ 3.08381350e-005, -8.16690488e-007, -6.18500198e-005,
          -1.15624993e-004, -8.89334260e-005, -1.24449014e-006,
          8.12451181e-005, 1.02594975e-004, 3.95321622e-005,
          -5.36060252e-005, -1.42849494e-005, 9.88124011e-005,
          1.77878450e-004, 1.22513477e-004, 2.64568007e-005,
          -2.35461684e-005, -2.03936579e-005, 2.10352984e-004,
          2.49420176e-004, 1.87608239e-004, 9.03736436e-005,
          -1.80743450e-006, -1.14073744e-004, -1.30088374e-004,
          -1.52169116e-004, -1.41885277e-004, -5.50791701e-005,
          -7.88641628e-005, -5.42234702e-005, -2.75879138e-005,
          4.47011047e-007, -1.14242444e-004, -8.27763797e-005,
          -4.03485283e-005, 2.27363689e-005, 8.45918912e-005,
          -5.49652896e-006, -1.03983734e-006, -5.97825601e-005,
          -4.68189974e-005, -3.46229790e-005, 3.25249243e-006,
          -2.78664083e-006, 1.92202497e-005, -1.64221383e-005,
          2.49423847e-005, 5.83031033e-006, 2.33406699e-005,
          -5.27841505e-004, -2.13968204e-004, -2.84307043e-005,
          1.33355006e-005, 5.00763090e-005, 2.62443005e-004,
          6.27986446e-004, 3.73320741e-004, 1.40962584e-004,
          1.54935042e-005, -1.05233361e-004, -3.19396844e-004,
          -2.92248471e-004, -8.22768868e-007, 3.00074258e-004,
          3.39917082e-004, -4.20165679e-006, -3.42892512e-004,
          -5.95686724e-004, -7.28085754e-004, -8.67945957e-004,
          -9.95976734e-004, -1.19713857e-003, -1.41911244e-003,
          -1.67958182e-003, -1.88225729e-003, -1.99140259e-003,
          -1.78791094e-003, -1.46525842e-003, -1.11609604e-003,
          -8.73313518e-004, -7.52876862e-004, -7.37274124e-004,
          -7.28085754e-004, -7.16774608e-004, -2.60469678e-004,
          -1.10036024e-004, 1.67916060e-005, 2.65045473e-005,
          -3.27748712e-005, -8.82164095e-005, -5.11408507e-005,
          -6.25680768e-005, -1.39830168e-004, -2.20883900e-004,
          -7.07984203e-004, -6.85876352e-004, -6.51410897e-004,
          -6.11292780e-004, -8.84876063e-004, -8.25297786e-004,
          -8.06693861e-004, -8.28253862e-004, -8.92890035e-004,
          -6.08430302e-004, -5.10108366e-004, -5.04455296e-004,
          -5.88031602e-004, -7.40684103e-004, -7.31923152e-004,
          -6.22246531e-004, -5.55423263e-004, -5.52476093e-004,
          -6.64913561e-004, -7.86741904e-004, -7.83055148e-004,
          -1.63741771e-003, -1.37408939e-003, -1.04456185e-003,
          -1.00677775e-003, -1.03598845e-003, -1.35913410e-003,
          -1.63951737e-003, -1.70276396e-003, -1.82502100e-003,
          -1.92403921e-003, -1.83009717e-003, -1.70690240e-003,
          -1.27087324e-003, -1.16189709e-003, -1.25274365e-003,
          -1.52513466e-003, -1.61596620e-003, -1.54898351e-003 ]
   decision_functions:
      -
         sv_count: 1
         rho: -1.8015478787495301e+001
         alpha: [ 1. ]
         index: [ 0 ]
      -
         sv_count: 1
         rho: 1.9388213419382801e+001
         alpha: [ 1. ]
         index: [ 1 ]
      -
         sv_count: 1
         rho: -1.4460865286723708e+001
         alpha: [ 1. ]
         index: [ 2 ]
      -
         sv_count: 1
         rho: 2.2194264970912162e+001
         alpha: [ 1. ]
         index: [ 3 ]
      -
         sv_count: 1
         rho: -1.0113800140188983e+001
         alpha: [ 1. ]
         index: [ 4 ]
      -
         sv_count: 1
         rho: -7.8479552956504595e+000
         alpha: [ 1. ]
         index: [ 5 ]
