%YAML:1.0
my_svm: !!opencv-ml-svm
   svm_type: C_SVC
   kernel: { type:LINEAR }
   C: 1.
   term_criteria: { epsilon:2.2204460492503131e-016, iterations:100 }
   var_all: 132
   var_count: 132
   class_count: 7
   class_labels: !!opencv-matrix
      rows: 1
      cols: 7
      dt: i
      data: [ 0, 1, 2, 3, 4, 5, 6 ]
   sv_total: 21
   support_vectors:
      - [ 1.34050113e-003, 1.23886182e-003, 1.19641365e-003,
          1.01446360e-003, 3.96341959e-004, -7.56132285e-005,
          -1.29294403e-005, 1.10626141e-004, -7.65663717e-005,
          -9.34141630e-004, -1.49572943e-003, -2.03798688e-003,
          -3.05752689e-003, -3.94434202e-003, -4.16461984e-003,
          -4.07246733e-003, -3.97118879e-003, 8.53466976e-004,
          7.62242591e-004, 8.43072368e-004, 8.37981643e-004,
          8.10894009e-004, 4.46214457e-004, 1.57458373e-004,
          -1.75493609e-004, -4.76613030e-004, -9.83283622e-004,
          4.05829720e-004, 3.99973942e-004, 4.01156169e-004,
          4.05502098e-004, 3.36172013e-003, 1.85193727e-003,
          1.41169803e-004, -1.68208766e-003, -3.32402904e-003,
          7.49801984e-004, 3.31367162e-004, 3.87455482e-004,
          3.04547630e-005, 3.75049858e-004, 3.76107724e-004,
          1.32416375e-004, -1.33224166e-004, -9.93521317e-005,
          -6.36024401e-004, -3.00541607e-004, -2.88352690e-004,
          9.88961570e-003, 7.06254132e-003, 3.33058066e-003,
          -1.89104394e-005, -3.48160719e-003, -7.44822808e-003,
          -1.05706705e-002, -8.98846611e-003, -5.34784468e-003,
          1.06429026e-004, 5.36721712e-003, 8.71233828e-003,
          7.23606069e-003, -5.40030378e-005, -7.48377200e-003,
          -8.37896764e-003, 1.52193432e-004, 8.48299824e-003,
          -8.88985582e-004, -1.10012374e-003, -1.31131429e-003,
          -1.70192833e-003, -2.21779756e-003, -2.69846362e-003,
          -3.52138258e-003, -4.65685735e-003, -5.38535789e-003,
          -4.35587857e-003, -2.79250019e-003, -1.42188172e-003,
          -3.01869324e-004, 8.82707769e-004, 1.97782717e-003,
          2.84012826e-003, 3.64026986e-003, 2.41834205e-004,
          -2.50657704e-005, 1.43525976e-004, 4.39472264e-004,
          5.84115507e-004, 1.18757098e-003, 1.49948709e-003,
          1.59129966e-003, 1.61443057e-003, 1.94463320e-003,
          -9.09176772e-004, -1.53598876e-003, -2.17938027e-003,
          -2.83180294e-003, -5.54345956e-004, -1.75228529e-003,
          -2.35400395e-003, -1.59834989e-003, -3.03505803e-004,
          -1.03137398e-003, -1.77675358e-003, -1.79290131e-003,
          -1.04210910e-003, -1.12212823e-004, -3.70306007e-005,
          -1.98245136e-004, -7.56949128e-004, -5.44640410e-004,
          4.13566566e-004, 1.23580394e-003, 9.57678829e-004,
          6.56798994e-003, 6.43150695e-003, 4.63233562e-003,
          4.85559506e-003, 4.88547655e-003, 6.84928242e-003,
          7.22238794e-003, 7.55085610e-004, -4.54138918e-003,
          -6.15144894e-003, -4.74469876e-003, 3.21125117e-004,
          5.86801162e-003, 5.51238749e-003, 6.00643409e-003,
          -4.12799139e-003, -6.62858086e-003, -4.23263153e-003 ]
      - [ -6.38126489e-003, -6.99790427e-003, -7.52316928e-003,
          -7.03851273e-003, -5.82391396e-003, -4.85952199e-003,
          -3.85396229e-003, -3.01973685e-003, -1.88679073e-003,
          -2.86797900e-003, -4.33040550e-003, -5.49509190e-003,
          -6.68954570e-003, -7.12047005e-003, -6.83786580e-003,
          -6.63361326e-003, -6.69051241e-003, 4.10871988e-004,
          1.42044941e-004, 9.44725529e-004, 2.15161382e-003,
          3.09482729e-003, -1.31035995e-004, 1.60065611e-004,
          6.69384317e-004, 8.32066347e-004, -1.72470573e-005,
          1.25925185e-003, 2.01780349e-003, 2.84629245e-003,
          3.65391979e-003, 3.01912823e-003, 2.59220717e-003,
          1.92140636e-003, 8.49777192e-004, -7.09979940e-005,
          3.22370557e-003, 2.30753538e-003, 1.85280084e-003,
          6.11189287e-004, 1.53618166e-003, 2.16351263e-003,
          1.17679056e-005, -1.07519678e-003, -1.56017684e-003,
          -2.55362410e-003, -1.46882515e-003, -8.85436428e-004,
          5.70980692e-003, 4.41540731e-003, 2.82247690e-003,
          2.10148655e-003, 1.95087181e-004, -2.74911709e-003,
          -5.47443423e-003, -3.02955764e-003, -6.98415097e-004,
          9.98958247e-004, 2.14763568e-003, 3.87696852e-003,
          4.16464452e-003, 1.72112312e-003, -2.25437921e-003,
          -2.80387886e-003, 1.18215848e-003, 4.13256278e-003,
          4.59681731e-004, 4.41807846e-004, 4.51607542e-004,
          1.51696571e-004, -3.21442436e-004, -6.94774033e-004,
          -1.03627623e-003, -8.58235639e-004, -9.12882679e-004,
          -3.98051634e-004, -3.40935163e-004, 5.92280005e-004,
          1.75157690e-003, 2.76992307e-003, 3.22612608e-003,
          3.27585940e-003, 3.26195592e-003, -7.02005858e-003,
          -9.77745932e-003, -1.18823647e-002, -1.24619650e-002,
          -1.20639997e-002, -1.19170081e-002, -1.30041847e-002,
          -1.30124763e-002, -1.16923917e-002, -9.58962087e-003,
          1.63385645e-003, -2.34827588e-004, -2.09433399e-003,
          -3.95389739e-003, -6.69658359e-004, -1.86692877e-003,
          -2.72513204e-003, -2.10254523e-003, -1.10323343e-003,
          -1.48072769e-003, -2.30434909e-003, -2.04032473e-003,
          -9.56549717e-004, 4.16207884e-004, 2.01984367e-004,
          -1.41256617e-003, -2.83070095e-003, -3.34793190e-003,
          -2.88106431e-003, -7.92736479e-004, -3.31831136e-004,
          7.69229978e-003, 6.42579887e-003, 3.71540710e-003,
          3.00922920e-003, 3.37823993e-003, 5.76022035e-003,
          6.71837293e-003, 6.63790293e-003, 7.27518229e-003,
          7.65654817e-003, 7.57362647e-003, 7.32206600e-003,
          5.77368028e-003, 3.93327419e-003, 5.22570917e-003,
          6.24886714e-003, 6.43416168e-003, 6.80622784e-003 ]
      - [ -1.00620242e-003, -1.15400949e-003, -1.43423863e-003,
          -1.71722646e-003, -1.50976470e-003, -1.01617374e-003,
          -6.26741967e-004, -2.72824109e-004, -2.94751953e-004,
          -1.02468545e-003, -1.34574389e-003, -1.37178402e-003,
          -1.42005994e-003, -1.80858746e-003, -2.21901783e-003,
          -2.45327014e-003, -2.47723283e-003, 1.38997810e-003,
          1.61552895e-003, 1.47717167e-003, 1.16580317e-003,
          9.12964519e-004, -2.54677114e-004, -8.26836622e-004,
          -1.47758995e-003, -1.87390682e-003, -1.83390593e-003,
          1.52719775e-004, 3.13578406e-004, 4.82874049e-004,
          6.17858255e-004, -8.29348719e-005, -6.17904007e-005,
          7.38721283e-005, 9.46198488e-005, 5.71118217e-005,
          4.88935795e-004, 4.89880680e-004, 4.71137289e-004,
          4.56006412e-004, 4.88507329e-004, 5.15866675e-004,
          -4.29969019e-004, -3.43344378e-004, -3.07753449e-004,
          -3.21918342e-004, -3.78907018e-004, -4.02437261e-004,
          -5.17972512e-004, 6.41213846e-004, 7.37623486e-004,
          -4.93474981e-005, -1.01978518e-003, -1.08092232e-003,
          -1.47238970e-004, -6.95917814e-004, -8.08709476e-004,
          1.23139660e-006, 5.91781223e-004, 2.22098141e-004,
          4.34652524e-004, -1.40026197e-004, -8.94446159e-004,
          -7.40321411e-004, 3.50398659e-005, 4.69826191e-004,
          3.67710338e-004, -1.01532103e-004, -5.54839789e-004,
          -1.02984614e-003, -1.61022192e-003, -2.33329041e-003,
          -3.10648605e-003, -4.01514303e-003, -4.37011011e-003,
          -3.88843659e-003, -2.68604886e-003, -1.48758607e-003,
          -3.66232474e-004, 4.32506873e-004, 9.84957442e-004,
          1.49275491e-003, 1.96960662e-003, 6.15213392e-003,
          6.95423968e-003, 7.64378440e-003, 7.78606208e-003,
          7.48858741e-003, 7.25372136e-003, 7.54447700e-003,
          7.36552710e-003, 6.48942823e-003, 5.42669650e-003,
          1.67702406e-003, 1.48738106e-003, 1.26596447e-003,
          1.05104549e-003, 6.00681116e-004, 9.04182903e-004,
          1.07870041e-003, 9.81488964e-004, 7.38884322e-004,
          1.56468549e-003, 1.40005944e-003, 1.32615888e-003,
          1.50454545e-003, 1.31899724e-003, 1.33399421e-003,
          1.47976109e-003, 1.24129467e-003, 1.32604479e-003,
          1.50814920e-003, 1.31739199e-003, 1.31508103e-003,
          -3.14716226e-003, -8.79218394e-004, 1.09365315e-003,
          1.59405754e-003, 1.08931004e-003, -8.13922845e-004,
          -2.97825248e-003, -4.53536585e-003, -6.27490552e-003,
          -6.92160986e-003, -6.27995841e-003, -4.60993033e-003,
          -4.57203598e-004, 4.70803730e-004, -5.25410811e-004,
          -5.02872188e-003, -5.89629635e-003, -4.94644325e-003 ]
      - [ -9.35057178e-004, -6.75401825e-004, -3.68324079e-004,
          -3.08573508e-004, -4.25229722e-004, -3.15103127e-004,
          -1.64891957e-004, -2.45609001e-004, -7.18021300e-004,
          -1.80215819e-003, -2.40675150e-003, -2.93985591e-003,
          -3.62237869e-003, -4.15519020e-003, -4.04051831e-003,
          -3.32749402e-003, -2.61085550e-003, 3.49950569e-004,
          2.25976677e-004, 7.39033567e-004, 1.57943799e-003,
          2.35457136e-003, -2.54821443e-005, 5.13358740e-004,
          1.01414730e-003, 1.09477516e-003, 4.61174001e-004,
          1.00579625e-003, 1.00719614e-003, 1.01895630e-003,
          1.05002534e-003, 2.14854837e-003, 1.31855183e-003,
          4.24945931e-004, -6.05714042e-004, -1.58318051e-003,
          3.43796122e-003, 2.44636438e-003, 1.90699566e-003,
          8.82939959e-004, 1.76036125e-003, 2.46428070e-003,
          9.59861427e-006, -8.37918080e-004, -1.41584768e-003,
          -2.64638290e-003, -1.76691846e-003, -1.00839976e-003,
          4.98518581e-003, 4.99166455e-003, 2.83083692e-003,
          -4.36833943e-005, -3.15074529e-003, -5.79235889e-003,
          -6.27725292e-003, -6.29741093e-003, -4.47087362e-003,
          -2.07570352e-004, 3.79080442e-003, 5.30322641e-003,
          5.75534115e-003, -2.46730458e-004, -6.52446225e-003,
          -7.03034038e-003, -1.58469338e-004, 6.47767540e-003,
          1.21572649e-003, 4.56782611e-004, -3.26032867e-004,
          -1.05648709e-003, -1.76367373e-003, -2.55267438e-003,
          -3.45334550e-003, -4.35887231e-003, -4.84655472e-003,
          -3.98894865e-003, -2.71220831e-003, -1.56179862e-003,
          -5.74873469e-004, 4.19862074e-004, 1.52498495e-003,
          2.68452964e-003, 3.81117431e-003, -4.22307476e-003,
          -5.78958262e-003, -7.09798746e-003, -7.56166643e-003,
          -7.31694233e-003, -6.51170732e-003, -6.39358070e-003,
          -5.60177490e-003, -4.10101144e-003, -2.44903285e-003,
          1.66116457e-003, 2.21148902e-003, 2.77052191e-003,
          3.34846438e-003, 4.67478298e-003, 4.27382020e-003,
          4.05251561e-003, 4.40416019e-003, 4.93511651e-003,
          -1.33023190e-003, -2.23488430e-003, -1.92184723e-003,
          -4.51165193e-004, 2.01115152e-004, -1.17248506e-004,
          3.07525275e-004, -8.84592184e-004, -9.36887402e-004,
          1.78275630e-004, 1.13541144e-003, 1.20798813e-003,
          4.03190823e-003, 6.75023766e-003, 7.52754183e-003,
          8.26435443e-003, 7.77971232e-003, 7.22294440e-003,
          4.73693432e-003, -9.20043734e-004, -5.95553871e-003,
          -7.62090273e-003, -6.15928695e-003, -1.40032370e-003,
          8.09345301e-003, 8.82105716e-003, 8.28483608e-003,
          -4.77801170e-003, -8.03223904e-003, -4.96827299e-003 ]
      - [ -6.26720546e-004, -6.50030561e-004, -9.75878385e-004,
          -1.48295704e-003, -1.64896657e-003, -1.06468936e-003,
          -3.81317775e-004, -3.27131856e-004, -9.74238617e-004,
          -1.55920070e-003, -1.68802426e-003, -1.34518684e-003,
          -1.13417464e-003, -1.24609435e-003, -1.53217698e-003,
          -1.66748138e-003, -1.69653527e-003, -1.50169499e-005,
          7.35434238e-004, 1.10536418e-003, 1.20957801e-003,
          1.35191251e-003, 1.87936748e-004, -1.49280517e-004,
          -4.96361114e-004, -5.31781232e-004, -8.73131430e-005,
          8.74376565e-004, 7.15815695e-004, 5.55208302e-004,
          3.85294959e-004, 2.41366535e-004, 2.08925616e-004,
          2.14137690e-004, -6.04504530e-005, -3.00227111e-004,
          2.60594708e-004, 5.07676625e-004, 5.63054113e-004,
          4.90122533e-004, 3.26205656e-004, 2.36061547e-004,
          3.81818973e-004, 4.02626669e-004, 4.15612740e-004,
          3.78580095e-004, 3.65639105e-004, 3.79355042e-004,
          -1.70913187e-003, 2.54125654e-004, 4.24990110e-004,
          -5.61088731e-004, -1.68882299e-003, -1.88578654e-003,
          -4.05946048e-004, -1.27108034e-003, -1.57541968e-003,
          -7.02053134e-004, -1.38194346e-005, -6.11006399e-004,
          -1.58114599e-005, -7.39130541e-004, -1.57480116e-003,
          -1.49461802e-003, -5.45130635e-004, 2.00780647e-004,
          -3.18372826e-004, -8.06651020e-004, -1.25079008e-003,
          -1.91279536e-003, -3.16814869e-003, -5.14243962e-003,
          -7.60470890e-003, -9.78544820e-003, -1.09755183e-002,
          -1.00220013e-002, -8.44503194e-003, -6.55190647e-003,
          -4.95096156e-003, -3.61956004e-003, -2.57469621e-003,
          -1.73789333e-003, -8.49086326e-004, 3.65528581e-003,
          4.34149476e-003, 5.13282465e-003, 5.49907470e-003,
          5.43543790e-003, 5.93180722e-003, 6.23916741e-003,
          6.01434009e-003, 5.10800350e-003, 4.14238963e-003,
          3.37514473e-004, 6.62575127e-004, 9.10726609e-004,
          1.15961221e-003, 1.14681246e-003, 1.23232044e-003,
          1.23988069e-003, 1.39000034e-003, 1.47890742e-003,
          -3.05074849e-004, -3.38912738e-004, -1.76090107e-004,
          4.66878933e-004, -1.23469536e-005, -1.90146166e-004,
          9.14810807e-004, 5.83648798e-004, 5.59008855e-004,
          7.95908680e-004, 7.18621770e-004, 6.59069396e-004,
          -1.36563019e-003, 1.58671709e-003, 3.50621925e-003,
          4.14447719e-003, 3.72061087e-003, 1.97999040e-003,
          -7.23330828e-004, -2.83096428e-003, -5.12453308e-003,
          -6.14716252e-003, -5.33126947e-003, -3.26108467e-003,
          2.20994721e-003, 3.13484413e-003, 2.43436452e-003,
          -4.11061756e-003, -5.77351125e-003, -4.27695503e-003 ]
      - [ -3.67637462e-004, -4.31020861e-004, -4.51722270e-004,
          -6.02237822e-004, -9.32303898e-004, -1.07483286e-003,
          -1.18950917e-003, -1.53164100e-003, -2.17545801e-003,
          -3.47154238e-003, -4.53570206e-003, -5.46857668e-003,
          -6.36081211e-003, -6.80427160e-003, -6.45010872e-003,
          -5.63142681e-003, -4.90397029e-003, 1.47968787e-003,
          1.02686498e-003, 9.51435592e-004, 1.11687032e-003,
          1.24591659e-003, 1.10531016e-003, 1.19707687e-003,
          1.14666275e-003, 5.94283803e-004, -7.72749539e-004,
          8.85295332e-004, 7.62628450e-004, 6.42595289e-004,
          5.36753330e-004, 2.73271743e-003, 1.46950257e-003,
          -3.20889667e-005, -1.73571252e-003, -3.23035079e-003,
          3.56191443e-003, 2.53795320e-003, 1.92110625e-003,
          7.18171359e-004, 1.69768336e-003, 2.44515808e-003,
          -3.21465690e-004, -1.30241655e-003, -2.06491444e-003,
          -3.54609592e-003, -2.47172615e-003, -1.57943694e-003,
          5.31533593e-003, 4.57140710e-003, 2.21366202e-003,
          -3.54502903e-004, -3.20856250e-003, -6.15477515e-003,
          -7.60751963e-003, -6.92210766e-003, -4.71060490e-003,
          -6.48287823e-004, 3.08553409e-003, 4.94178711e-003,
          5.08874096e-003, -5.60467597e-004, -6.53270818e-003,
          -7.10291509e-003, -4.85289173e-004, 5.83560392e-003,
          1.66222570e-003, 9.64024512e-004, 2.31168422e-004,
          -5.45497984e-004, -1.38434686e-003, -2.35997955e-003,
          -3.39092407e-003, -4.25914209e-003, -4.72194469e-003,
          -3.85286612e-003, -2.82339612e-003, -1.67623023e-003,
          -4.00200835e-004, 1.02696952e-003, 2.54589878e-003,
          4.02277661e-003, 5.44470223e-003, -4.46553342e-003,
          -5.52093470e-003, -6.53914362e-003, -6.98544318e-003,
          -6.95562316e-003, -5.56310872e-003, -4.91929846e-003,
          -3.79217975e-003, -2.06485949e-003, -3.70152789e-004,
          1.71766453e-003, 1.23275397e-003, 7.42447039e-004,
          2.55321444e-004, 2.64743250e-003, 1.62164681e-003,
          1.15799753e-003, 1.79210247e-003, 2.99845380e-003,
          -1.56120991e-003, -2.31576432e-003, -2.00160942e-003,
          -6.23536296e-004, 2.20542977e-004, -1.58570212e-004,
          6.73180039e-004, -1.58786788e-004, -3.27327871e-005,
          1.06567598e-003, 2.01164396e-003, 1.91916642e-003,
          4.67779115e-003, 6.05134666e-003, 5.56674553e-003,
          5.99531643e-003, 5.89183066e-003, 6.63852692e-003,
          5.58178639e-003, 7.37312133e-004, -3.41055146e-003,
          -4.79364535e-003, -3.67917796e-003, 1.44959879e-004,
          6.86938828e-003, 7.02298805e-003, 7.15228729e-003,
          -3.08741629e-003, -5.87614533e-003, -3.36266332e-003 ]
      - [ -3.11141741e-003, -3.25961900e-003, -3.42408312e-003,
          -2.99687218e-003, -1.95478159e-003, -1.29335537e-003,
          -1.22429908e-003, -1.30428968e-003, -7.43580749e-004,
          -2.43583607e-004, -4.54927474e-004, -6.00699510e-004,
          -8.45173054e-005, 9.70943773e-004, 1.51416031e-003,
          1.50574639e-003, 1.36445847e-003, -3.30024253e-004,
          -3.97237600e-004, -8.57056439e-005, 4.75055305e-004,
          9.42715094e-004, -5.10420286e-005, 1.27802574e-004,
          4.47726081e-004, 6.08018949e-004, 5.90317068e-004,
          5.06302109e-004, 6.83842460e-004, 8.71965603e-004,
          1.05185667e-003, -2.07505957e-003, -7.70420302e-004,
          6.99415745e-004, 2.08580052e-003, 3.34625621e-003,
          1.02846115e-003, 9.54941963e-004, 7.19965785e-004,
          4.74087457e-004, 5.86775306e-004, 8.78352090e-004,
          6.02206092e-005, -2.64394417e-004, -5.15855732e-004,
          -5.15837513e-004, -2.83215049e-004, -3.74937076e-006,
          -6.63506705e-003, -4.74122074e-003, -2.00735126e-003,
          8.46053299e-004, 3.36969155e-003, 5.83529891e-003,
          7.35955546e-003, 7.17079733e-003, 4.73762304e-003,
          1.09087996e-005, -4.66791634e-003, -6.79896260e-003,
          -4.88127489e-003, 8.16962391e-004, 6.03499170e-003,
          6.45914068e-003, 4.67190075e-005, -6.40026433e-003,
          8.47989053e-004, 1.25325168e-003, 1.68235961e-003,
          2.13064207e-003, 2.42848299e-003, 2.83932663e-003,
          3.78994271e-003, 5.23583358e-003, 6.11188682e-003,
          5.20011550e-003, 3.40309530e-003, 2.20464985e-003,
          1.64997065e-003, 1.23322790e-003, 5.83768240e-004,
          -9.01724998e-005, -7.43262470e-004, -4.04275116e-003,
          -4.98217717e-003, -5.99631295e-003, -6.40804972e-003,
          -6.22230489e-003, -6.53794920e-003, -7.13209854e-003,
          -7.11178593e-003, -6.58021122e-003, -6.08820468e-003,
          9.76421288e-004, 8.29492928e-004, 6.97396579e-004,
          5.87123679e-004, -4.65885125e-004, 3.36612167e-004,
          6.70152018e-004, 3.49631679e-004, -4.20898374e-004,
          -7.22313067e-004, -3.46408138e-004, -1.39917829e-004,
          -2.47924938e-004, -5.20747912e-004, -7.42120552e-004,
          -8.25931551e-004, -8.69467971e-004, -1.28917652e-003,
          -1.82804361e-003, -1.63324201e-003, -1.26621837e-003,
          -3.28029320e-003, -3.64735886e-003, -3.04205064e-003,
          -3.45735135e-003, -3.08434200e-003, -3.71401664e-003,
          -3.42621421e-003, 3.30206030e-003, 9.11774859e-003,
          1.08711170e-002, 8.99328850e-003, 3.27094807e-003,
          -3.53669422e-003, -3.75739974e-003, -3.37393093e-003,
          8.16372782e-003, 1.08617162e-002, 7.96386506e-003 ]
      - [ -2.47942936e-003, -2.23866175e-003, -2.20529013e-003,
          -2.33242754e-003, -1.74248277e-003, -7.76158879e-004,
          -3.47134075e-004, -9.74272407e-005, -2.49948818e-004,
          -2.21154289e-004, -2.18242021e-005, 5.23560389e-004,
          1.74845208e-003, 2.68588495e-003, 2.72980891e-003,
          2.44079065e-003, 2.30518263e-003, -5.11895109e-004,
          -4.29411390e-004, -6.30334252e-004, -7.93762913e-004,
          -8.03437375e-004, -1.20216158e-004, -8.58893211e-004,
          -1.68585486e-003, -2.26353947e-003, -2.00096634e-003,
          3.58827128e-005, -5.74816659e-005, -1.66690224e-004,
          -3.33067408e-004, -3.12326616e-003, -1.80585694e-003,
          -1.87204903e-004, 1.40043709e-003, 2.80258898e-003,
          -9.57116194e-004, -4.65175544e-004, -1.67442631e-004,
          2.19590758e-004, -2.49162898e-004, -4.28849278e-004,
          -4.95589280e-004, -1.13388793e-004, 1.19702527e-004,
          4.95718617e-004, 1.17248834e-004, -1.00245059e-004,
          -8.97060428e-003, -5.10878814e-003, -2.10680137e-003,
          -5.39063127e-004, 1.08665123e-003, 4.38434212e-003,
          8.38163309e-003, 6.12133928e-003, 2.83291563e-003,
          -3.72930604e-004, -3.62512399e-003, -6.81353593e-003,
          -5.25396504e-003, -3.31492949e-004, 4.75997198e-003,
          5.54581033e-003, -2.76039325e-004, -6.24472275e-003,
          -1.66585972e-003, -1.55564619e-003, -1.43333641e-003,
          -9.82736819e-004, -4.48095525e-004, -3.86111264e-004,
          -2.66883842e-004, -2.07636083e-004, 2.08585523e-004,
          -4.15692077e-004, -7.84406962e-004, -1.00491114e-003,
          -8.96796642e-004, -9.89189139e-004, -8.51418125e-004,
          -4.45307029e-004, -8.01038623e-005, 4.16386221e-003,
          5.06446604e-003, 5.47251804e-003, 5.39565692e-003,
          5.11351973e-003, 5.11957239e-003, 5.53248590e-003,
          5.53779444e-003, 4.47663898e-003, 2.63917889e-003,
          2.38730968e-003, 3.13226180e-003, 3.87895666e-003,
          4.62872908e-003, 1.48444530e-003, 2.97062867e-003,
          3.89387156e-003, 3.35558248e-003, 2.18380871e-003,
          7.29139254e-004, 8.24658200e-004, 8.99777689e-004,
          1.26143650e-003, 3.87408072e-004, 1.71343359e-004,
          1.32202578e-003, 1.10698293e-003, 1.01586978e-003,
          1.10482774e-003, 4.98115318e-004, 6.28844660e-004,
          -9.98484157e-003, -6.19053608e-003, -1.68681517e-003,
          -6.30084949e-004, -1.20071461e-003, -5.07873157e-003,
          -8.11862107e-003, -5.44604566e-003, -4.12897393e-003,
          -4.11748653e-003, -4.86277370e-003, -6.82091853e-003,
          -4.84546507e-003, -2.35032500e-003, -3.88626382e-003,
          -2.66615069e-003, -2.41262885e-003, -3.67711927e-003 ]
      - [ -6.97979890e-003, -6.15520868e-003, -5.42666903e-003,
          -4.81276168e-003, -3.68206552e-003, -2.50081648e-003,
          -2.29099765e-003, -2.41904426e-003, -2.60730740e-003,
          -2.84267403e-003, -2.97714933e-003, -2.91567203e-003,
          -1.89867744e-003, -5.82915382e-004, 3.59873404e-004,
          1.41431100e-003, 2.32199812e-003, -2.34588818e-003,
          -2.17612530e-003, -9.32364783e-004, 1.09601126e-003,
          3.05796019e-003, -8.73761426e-004, 3.59895144e-004,
          1.58734131e-003, 2.05497793e-003, 1.82963954e-003,
          1.23568124e-003, 1.43919850e-003, 1.62882241e-003,
          1.77958526e-003, -2.77504022e-003, -1.13416917e-003,
          8.85758665e-004, 2.68450007e-003, 4.22287267e-003,
          3.02514876e-003, 2.26977956e-003, 1.52265548e-003,
          8.72113684e-004, 1.53974514e-003, 2.50549265e-003,
          -1.14922377e-003, -1.77174329e-003, -2.59015639e-003,
          -3.48225003e-003, -2.79956637e-003, -1.81799207e-003,
          -1.00172292e-002, -4.57699085e-003, -1.12049480e-003,
          5.62832225e-004, 1.82321016e-003, 4.90098633e-003,
          9.67602246e-003, 6.82586571e-003, 3.10569839e-003,
          3.88111621e-005, -3.20021994e-003, -7.00746896e-003,
          -3.38864163e-003, 3.39026796e-004, 3.53015424e-003,
          4.51501971e-003, 2.41785165e-004, -4.45782347e-003,
          6.28700596e-004, 5.14724270e-005, -5.41851565e-004,
          -5.62110217e-004, -1.60333817e-004, 1.81442971e-004,
          9.83501202e-004, 1.96761801e-003, 3.19448486e-003,
          2.72387755e-003, 1.96259515e-003, 1.24585128e-003,
          1.07607804e-003, 8.73680576e-004, 1.01194147e-003,
          1.70379167e-003, 2.35460605e-003, -5.89192193e-003,
          -8.48407112e-003, -1.12980595e-002, -1.25930049e-002,
          -1.23398220e-002, -1.22839417e-002, -1.26191704e-002,
          -1.14776101e-002, -9.35043860e-003, -7.62866111e-003,
          3.69601301e-003, 5.91655727e-003, 8.18073843e-003,
          1.04710460e-002, 8.47559795e-003, 1.01659782e-002,
          1.09746354e-002, 1.03554232e-002, 8.85744579e-003,
          4.94970474e-004, 3.57807701e-004, 8.03692674e-004,
          1.57400616e-003, 1.02798839e-003, 5.34504827e-004,
          1.50944537e-003, 7.54558365e-004, 9.08583315e-005,
          1.01541242e-004, 3.13101278e-004, 8.45945964e-004,
          -7.39257177e-003, -2.17373506e-003, 2.92768003e-003,
          4.02782811e-003, 3.14967241e-003, -1.63004559e-003,
          -6.41069142e-003, -3.85811948e-003, -2.59700860e-003,
          -2.46997736e-003, -3.01288022e-003, -4.64192079e-003,
          1.26393512e-003, 3.83405364e-003, 1.68466999e-003,
          -1.23419403e-003, -1.75636250e-003, -1.71231723e-003 ]
      - [ -1.72165118e-003, -2.02918216e-003, -2.65609217e-003,
          -3.27811320e-003, -3.14734993e-003, -2.08473811e-003,
          -1.11603830e-003, -9.42793849e-004, -1.44008023e-003,
          -1.79664488e-003, -1.61362265e-003, -6.86600106e-004,
          4.82863717e-004, 1.19100965e-003, 1.11869280e-003,
          8.97384947e-004, 8.09616817e-004, -7.15062255e-004,
          7.74851287e-005, 5.07386285e-004, 7.84294854e-004,
          1.07170700e-003, 1.66300742e-005, 1.55717462e-005,
          1.01580272e-005, 1.52117354e-004, 7.33194116e-004,
          5.21881506e-004, 2.56412779e-004, -9.72569160e-006,
          -2.75583268e-004, -2.32287869e-003, -1.38223427e-003,
          -3.16934282e-004, 5.89592324e-004, 1.49754353e-003,
          5.27643831e-004, 9.75205272e-004, 7.47133512e-004,
          8.31581361e-004, 5.58610016e-004, 6.82640704e-004,
          -7.95879168e-005, 2.41904181e-005, -2.72191333e-004,
          -3.95945681e-005, -1.49732135e-004, 5.51814519e-005,
          -9.64808743e-003, -5.32369968e-003, -2.34375428e-003,
          -7.46308535e-004, 7.63635209e-004, 3.58136860e-003,
          7.59449275e-003, 5.30689070e-003, 2.09152023e-003,
          -1.10520318e-003, -4.39635012e-003, -7.55941728e-003,
          -5.95907867e-003, -8.20941292e-004, 4.25870484e-003,
          4.82476829e-003, -9.66982916e-004, -6.83021406e-003,
          -2.45350436e-003, -2.80340784e-003, -3.05175921e-003,
          -3.39954882e-003, -4.16435162e-003, -5.73981646e-003,
          -7.75434915e-003, -9.29516088e-003, -9.90540255e-003,
          -9.39358026e-003, -8.30640085e-003, -6.63763098e-003,
          -5.23116253e-003, -4.29447088e-003, -3.57758394e-003,
          -2.99185747e-003, -2.32392480e-003, 2.24251905e-003,
          2.83965771e-003, 3.26053542e-003, 3.45074525e-003,
          3.50259570e-003, 4.12414083e-003, 4.33640461e-003,
          4.34909575e-003, 3.92143382e-003, 3.17859836e-003,
          1.80703530e-003, 2.39100866e-003, 2.88061472e-003,
          3.35158827e-003, 1.44683209e-003, 2.19947263e-003,
          2.58155959e-003, 2.49511702e-003, 2.03606649e-003,
          6.69897650e-004, 1.68664323e-003, 2.05844641e-003,
          1.89341931e-003, 4.16618859e-004, 4.10044850e-005,
          2.32399418e-003, 2.88008200e-003, 2.73199193e-003,
          2.00583669e-003, 1.09181320e-003, 1.16871763e-003,
          -6.92607882e-003, -3.44569632e-003, -8.65684269e-005,
          6.19271887e-004, 3.51603929e-004, -2.58263550e-003,
          -5.60624246e-003, -3.07131908e-003, -1.70994387e-003,
          -1.75596599e-003, -2.22282484e-003, -4.01652465e-003,
          -2.22513499e-003, -6.56490680e-004, -1.54986314e-003,
          -8.09046323e-004, -9.72670969e-004, -1.49485655e-003 ]
      - [ -3.97251919e-003, -3.70787573e-003, -3.52740567e-003,
          -3.25480709e-003, -2.37284810e-003, -1.63730420e-003,
          -2.34562042e-003, -3.66019667e-003, -4.69294610e-003,
          -4.97030001e-003, -5.54380054e-003, -5.96386008e-003,
          -4.85295290e-003, -2.67038518e-003, -9.99854179e-004,
          4.84679913e-004, 1.70427770e-003, 3.64454063e-005,
          -2.88355950e-004, 3.25194938e-004, 1.62013329e-003,
          2.79579475e-003, 2.36663548e-003, 3.52651323e-003,
          4.51348908e-003, 4.36165463e-003, 2.81736534e-003,
          1.94867107e-003, 1.55624608e-003, 1.11572514e-003,
          6.79870136e-004, -3.72265838e-003, -1.90651685e-003,
          1.91735846e-004, 2.04082695e-003, 3.71794682e-003,
          4.34889272e-003, 3.52291693e-003, 2.60564988e-003,
          1.67405454e-003, 2.44524819e-003, 3.55716981e-003,
          -5.68532305e-005, -1.02342176e-003, -2.23798840e-003,
          -3.62657313e-003, -2.63459561e-003, -1.24813884e-003,
          -1.27212973e-002, -7.47742271e-003, -3.24432761e-003,
          -5.00307535e-004, 2.03587394e-003, 5.70778595e-003,
          9.98925045e-003, 7.58224074e-003, 3.18347779e-003,
          -1.84581673e-003, -6.93606585e-003, -1.09420484e-002,
          -6.36196928e-003, -7.81180919e-004, 4.51708352e-003,
          5.29982569e-003, -1.51637534e-003, -8.25896766e-003,
          2.05753464e-003, 1.19041908e-003, 2.34670792e-004,
          -8.93601100e-005, -7.17987059e-005, -8.95491467e-005,
          8.07983510e-004, 2.36936565e-003, 4.00572317e-003,
          2.76968139e-003, 6.94528513e-004, -1.05733448e-003,
          -1.62664917e-003, -1.56223599e-003, -8.90586991e-004,
          4.88460762e-004, 1.80818792e-003, -8.54883902e-003,
          -1.05557777e-002, -1.29413279e-002, -1.39418561e-002,
          -1.34688122e-002, -1.21218041e-002, -1.17941136e-002,
          -9.98066086e-003, -6.74526393e-003, -4.00524074e-003,
          5.37262019e-003, 6.37221942e-003, 7.41874101e-003,
          8.48520547e-003, 5.86740347e-003, 7.49776280e-003,
          8.36732797e-003, 7.81433005e-003, 6.58544805e-003,
          -7.66229874e-004, -4.71379637e-004, 2.17983907e-004,
          1.05973124e-003, 4.83030512e-004, -3.30557086e-004,
          2.43982952e-003, 2.36831442e-003, 2.01981072e-003,
          2.07326980e-003, 1.95544027e-003, 2.22012075e-003,
          -9.61292908e-003, -5.68363909e-003, -1.18813606e-003,
          -9.03340551e-005, -5.14536165e-004, -4.35638893e-003,
          -7.64954276e-003, -1.58989441e-003, 2.78559676e-003,
          3.86512931e-003, 1.98350567e-003, -3.08867171e-003,
          -2.19668890e-003, 2.92388519e-004, -1.19486940e-003,
          2.52485438e-003, 3.37592838e-003, 1.43928942e-003 ]
      - [ 1.53205707e-004, -2.74404101e-006, -2.28307486e-004,
          -4.90799895e-004, -5.33537765e-004, -4.03446611e-004,
          -3.15443554e-004, -2.61996232e-004, -5.21590177e-004,
          -7.67443562e-004, -6.50843780e-004, -3.10533826e-004,
          1.06935731e-005, -4.36350092e-005, -2.15474094e-004,
          -2.97720893e-004, -2.54444138e-004, 1.04329002e-003,
          1.12026429e-003, 8.63787835e-004, 4.82593139e-004,
          1.82715958e-004, -1.11197121e-004, -3.92461196e-004,
          -7.64411117e-004, -9.64288425e-004, -7.93369079e-004,
          -9.65742674e-006, -3.39828985e-005, -4.05604951e-005,
          -6.21918152e-005, -4.55435948e-004, -4.01680620e-004,
          -2.76854204e-004, -9.26956418e-005, 4.04364328e-005,
          -3.97056174e-005, 8.70913063e-005, 1.27247520e-004,
          2.52588739e-004, 1.60400188e-004, 1.05021034e-004,
          -7.86259407e-005, 1.06372376e-004, 1.81928859e-004,
          2.99867097e-004, 1.52293593e-004, 5.91878234e-005,
          -9.62093065e-004, -3.29261908e-004, -1.19189528e-004,
          -4.07681568e-004, -6.43728359e-004, -3.79260571e-004,
          3.30794923e-004, -3.37702048e-004, -6.60877675e-004,
          -3.67876375e-004, -5.15001484e-005, -3.79837758e-004,
          -4.54326626e-004, -4.43530676e-004, -3.48946400e-004,
          -2.75963655e-004, -2.78561027e-004, -3.66995635e-004,
          -6.38803991e-004, -1.07256882e-003, -1.49507902e-003,
          -1.84423872e-003, -2.05678376e-003, -2.32749758e-003,
          -2.69062142e-003, -3.10194097e-003, -3.10954568e-003,
          -2.81263678e-003, -1.99727179e-003, -1.27842813e-003,
          -8.04377953e-004, -6.22531981e-004, -4.59191710e-004,
          -2.28083867e-004, -8.14044233e-006, 4.50965390e-003,
          5.41726779e-003, 6.10146625e-003, 6.24498166e-003,
          5.96519792e-003, 5.87825337e-003, 6.18359353e-003,
          6.07735664e-003, 5.43785328e-003, 4.57850890e-003,
          1.12866284e-003, 1.19002396e-003, 1.23642036e-003,
          1.27141690e-003, 5.52105659e-004, 8.62883171e-004,
          1.07764464e-003, 9.43691470e-004, 7.01241137e-004,
          1.11090101e-003, 1.16018252e-003, 1.12835132e-003,
          1.06970244e-003, 7.72209780e-004, 8.00501439e-004,
          1.16707338e-003, 1.21599413e-003, 1.33756956e-003,
          1.35195616e-003, 9.95109207e-004, 9.27676447e-004,
          -2.29797768e-003, -1.07274647e-003, 1.95866291e-004,
          5.98947285e-004, 2.77179846e-004, -8.49448668e-004,
          -1.95665169e-003, -3.00086173e-003, -4.17834893e-003,
          -4.62233508e-003, -4.25862009e-003, -3.21496208e-003,
          -8.13707593e-004, -9.02682077e-005, -7.43337907e-004,
          -3.35862464e-003, -3.87344230e-003, -3.42819607e-003 ]
      - [ -5.94872399e-004, 3.19497747e-004, 1.18306559e-003,
          1.21484266e-003, 8.07166914e-004, 8.65376089e-004,
          9.01854190e-004, 8.03239411e-004, -1.41850396e-004,
          -1.38236175e-003, -1.78344024e-003, -2.13411124e-003,
          -2.55885744e-003, -3.20975995e-003, -3.33763263e-003,
          -2.54471973e-003, -1.66567985e-003, -9.69127403e-004,
          -8.39815533e-004, -5.40241017e-004, -5.55954830e-005,
          5.16811619e-004, 4.49771178e-004, 6.66634354e-004,
          7.18520023e-004, 5.57230436e-004, 2.57635140e-004,
          6.83683087e-004, 7.05483835e-004, 7.01732759e-004,
          6.82731683e-004, 1.34806242e-003, 8.89824179e-004,
          4.50899097e-004, -2.08672078e-004, -9.00834100e-004,
          8.39743880e-004, 2.87373376e-004, 5.97363987e-006,
          -3.53110925e-004, 8.21555514e-005, 4.57209069e-004,
          -1.67101447e-004, -4.22639016e-004, -7.51622603e-004,
          -1.52946962e-003, -1.17299415e-003, -7.24966580e-004,
          3.13979853e-003, 4.23028460e-003, 2.79556541e-003,
          -5.45826369e-005, -2.94954306e-003, -4.54714196e-003,
          -3.65861785e-003, -4.83597536e-003, -3.72668914e-003,
          7.73510546e-004, 4.90781385e-003, 5.25600137e-003,
          5.27572259e-003, -2.13175488e-004, -5.62519068e-003,
          -5.46569284e-003, 7.98620924e-004, 6.69390196e-003,
          2.04021228e-003, 9.78900236e-004, -1.19560224e-004,
          -1.08297041e-003, -1.92800676e-003, -3.04573681e-003,
          -4.41192323e-003, -6.05459791e-003, -6.82670670e-003,
          -5.65522397e-003, -3.62184830e-003, -2.07578088e-003,
          -7.53237517e-004, 4.56283946e-004, 1.96697377e-003,
          3.69506120e-003, 5.37743792e-003, 6.58576901e-005,
          -4.44974197e-004, -1.03303022e-003, -1.45870424e-003,
          -1.66818453e-003, -1.02501735e-003, -3.59242229e-004,
          4.20430588e-004, 1.09494000e-003, 1.52439368e-003,
          1.33459014e-003, 2.71256245e-003, 4.08773636e-003,
          5.46572637e-003, 5.85967628e-003, 5.89486817e-003,
          5.93776768e-003, 5.92673477e-003, 5.91885019e-003,
          8.08424666e-005, -6.71788061e-004, -6.58880686e-004,
          3.14918580e-004, 4.19232529e-004, 2.92209152e-004,
          1.16559525e-003, 4.29253909e-004, 5.16052532e-004,
          1.38218491e-003, 1.45145832e-003, 1.39442587e-003,
          1.24429804e-004, 3.97573551e-003, 6.33661635e-003,
          7.38667324e-003, 6.37980085e-003, 4.08766326e-003,
          5.03039744e-004, -6.69774320e-003, -1.34824635e-002,
          -1.57074332e-002, -1.33950226e-002, -6.81523560e-003,
          6.06644712e-003, 7.62572140e-003, 5.90482214e-003,
          -1.14188027e-002, -1.54241771e-002, -1.12107759e-002 ]
      - [ 8.75138154e-004, 8.29079538e-004, 6.08529372e-004,
          1.31504872e-004, -2.42387730e-004, -1.12398193e-004,
          1.23150385e-004, 3.75772761e-005, -5.26722579e-004,
          -7.06815626e-004, -4.79330163e-004, -6.92616482e-007,
          3.79121338e-004, 3.76813114e-004, 1.48875071e-004,
          9.51717630e-006, -1.80532334e-005, 3.56816687e-004,
          7.47664832e-004, 6.78062730e-004, 3.71929549e-004,
          1.32310379e-004, 4.68014507e-004, 1.15786868e-004,
          -2.96590413e-004, -4.71368228e-004, -1.82295145e-004,
          2.65422481e-004, 5.30124526e-005, -1.70610962e-004,
          -4.00263380e-004, -4.09887289e-004, -3.59500409e-004,
          -2.59912253e-004, -2.37851680e-004, -2.13359759e-004,
          -3.37849517e-004, -4.98277113e-005, 1.28363608e-005,
          1.17053714e-004, -1.00451645e-004, -2.23789903e-004,
          2.99415842e-004, 4.83948068e-004, 5.27524098e-004,
          6.40553597e-004, 4.78310685e-004, 4.10322100e-004,
          -1.91757549e-003, -5.78979205e-004, -2.55181076e-004,
          -7.58161535e-004, -1.14307832e-003, -8.10463389e-004,
          4.81311232e-004, -4.10252367e-004, -9.51663533e-004,
          -6.87652442e-004, -4.32003639e-004, -1.02300860e-003,
          -8.08986719e-004, -8.10036785e-004, -6.34647091e-004,
          -4.94743814e-004, -6.04407222e-004, -6.75981399e-004,
          -1.22045830e-003, -1.53555791e-003, -1.82240445e-003,
          -2.15480360e-003, -2.70064198e-003, -3.67238768e-003,
          -4.96179471e-003, -6.15457818e-003, -6.73485780e-003,
          -6.20737346e-003, -5.20980032e-003, -4.18039970e-003,
          -3.43406200e-003, -2.89845141e-003, -2.40427162e-003,
          -1.93944352e-003, -1.45031395e-003, 3.20997834e-003,
          4.25016740e-003, 5.18077472e-003, 5.53924078e-003,
          5.42387459e-003, 5.75084006e-003, 6.17089542e-003,
          6.05777884e-003, 5.28844539e-003, 4.29941528e-003,
          3.10025527e-004, 6.91821857e-004, 1.03655166e-003,
          1.37062673e-003, 8.06323078e-004, 1.04605418e-003,
          1.20202347e-003, 1.20482210e-003, 1.12055696e-003,
          1.23190912e-004, 3.24636640e-004, 4.14368376e-004,
          5.64562622e-004, 4.92188956e-005, -4.68706421e-005,
          1.03580055e-003, 1.12341333e-003, 1.21288165e-003,
          1.22347067e-003, 8.45297705e-004, 7.26937724e-004,
          -2.23463122e-003, -2.39013549e-004, 1.38615456e-003,
          1.94082432e-003, 1.60963915e-003, 1.91864630e-004,
          -1.56508200e-003, -2.79370160e-003, -4.25781915e-003,
          -4.93543595e-003, -4.47116327e-003, -3.24658188e-003,
          3.03424982e-004, 1.21594325e-003, 5.52944723e-004,
          -3.49122798e-003, -4.47187852e-003, -3.71089065e-003 ]
      - [ 2.74752313e-003, 3.70267360e-003, 4.55200765e-003,
          4.22404381e-003, 3.11159785e-003, 2.77023134e-003,
          2.38249078e-003, 1.49534876e-003, -4.19858843e-004,
          -1.78776425e-003, -2.47516856e-003, -3.43707041e-003,
          -4.32916917e-003, -5.02208062e-003, -5.02892118e-003,
          -4.12592711e-003, -3.32102668e-003, 9.79799428e-004,
          5.37813117e-004, -1.63311939e-004, -8.05926102e-004,
          -1.21586095e-003, 3.81149002e-003, 3.08120903e-003,
          1.92720152e-003, 3.97761323e-004, -1.22934033e-003,
          1.52372464e-003, 1.07879343e-003, 5.54724247e-004,
          4.29871870e-005, 2.78581958e-003, 1.72764505e-003,
          4.51364438e-004, -1.21058605e-003, -2.72393902e-003,
          1.86045875e-003, 1.15511322e-003, 7.37274589e-004,
          1.04420062e-004, 6.81055768e-004, 1.14571815e-003,
          1.98839407e-004, -4.38901188e-004, -1.17457239e-003,
          -2.56561767e-003, -1.82085170e-003, -9.88681917e-004,
          4.51199710e-003, 4.93174512e-003, 2.75604893e-003,
          -7.36358226e-004, -4.13834676e-003, -6.63567567e-003,
          -6.70296792e-003, -7.49507966e-003, -5.75561216e-003,
          -1.62654935e-004, 5.03524113e-003, 6.18049456e-003,
          6.03751000e-003, -8.14466912e-004, -7.44836731e-003,
          -7.74781639e-003, -3.55148550e-005, 7.59841828e-003,
          3.67957423e-003, 2.53519975e-003, 1.30764314e-003,
          1.49180341e-004, -1.14769139e-003, -3.21650016e-003,
          -5.62156877e-003, -8.14131647e-003, -9.60470363e-003,
          -8.85442831e-003, -7.43242865e-003, -6.48785057e-003,
          -5.31748682e-003, -3.48923798e-003, -9.09016468e-004,
          1.99194439e-003, 4.83168708e-003, -2.33797720e-004,
          2.86838447e-004, 2.15725304e-004, -2.86261522e-004,
          -1.02108542e-003, 8.99375067e-004, 2.88999570e-003,
          4.44197236e-003, 5.37404558e-003, 5.42946719e-003,
          1.24689064e-003, 1.82004808e-003, 2.36693723e-003,
          2.89862277e-003, 5.12578385e-003, 4.36192239e-003,
          4.12813341e-003, 4.41015465e-003, 5.27189486e-003,
          -1.02750573e-003, -1.69161661e-003, -1.65763218e-003,
          -4.19224671e-004, -1.17489784e-004, -3.86585045e-004,
          1.58949313e-003, 1.24244532e-003, 1.60096609e-003,
          2.75921193e-003, 2.73021031e-003, 2.36420031e-003,
          1.01106591e-003, 4.43006167e-003, 5.98077895e-003,
          7.17892731e-003, 6.23830408e-003, 4.88358922e-003,
          1.98382442e-003, -6.31398102e-003, -1.40547268e-002,
          -1.66177470e-002, -1.41659202e-002, -6.86281500e-003,
          6.65610423e-003, 8.24743602e-003, 6.78524328e-003,
          -1.27668725e-002, -1.74783226e-002, -1.28440363e-002 ]
      - [ -5.18186716e-004, -2.52324506e-004, 1.07617998e-004,
          3.78306519e-004, 3.00352229e-004, 9.30002425e-005,
          -3.93036862e-005, -1.21793302e-004, -6.03939770e-005,
          7.34111673e-005, 5.55778315e-005, -1.90925595e-004,
          -5.12440281e-004, -5.21065609e-004, -2.42299750e-004,
          9.01686435e-005, 2.43119284e-004, -1.06647005e-003,
          -1.20775867e-003, -8.49829521e-004, -2.66445160e-004,
          2.32447317e-004, 2.65292125e-004, 7.90532504e-004,
          1.35687238e-003, 1.56890799e-003, 1.15962303e-003,
          2.77056824e-004, 3.13965866e-004, 3.28624737e-004,
          3.52057075e-004, 1.17798673e-003, 8.72525910e-004,
          4.53868473e-004, -8.46353942e-005, -5.48618031e-004,
          5.39298460e-004, 2.52769329e-004, 1.71331631e-004,
          -9.55342330e-005, 1.21277415e-004, 2.52121419e-004,
          -9.66283769e-005, -3.37086996e-004, -4.57755465e-004,
          -8.43833026e-004, -6.04067231e-004, -4.14408481e-004,
          2.45259725e-003, 1.68153050e-003, 8.76139267e-004,
          4.09567117e-004, -1.05711035e-004, -1.09781057e-003,
          -2.08812905e-003, -1.49305922e-003, -5.96810714e-004,
          4.33376321e-004, 1.40023686e-003, 2.14061490e-003,
          2.07032170e-003, 3.46551067e-004, -1.46116351e-003,
          -1.56442751e-003, 4.27330728e-004, 2.39715190e-003,
          3.55512690e-004, 5.47512202e-004, 7.25411053e-004,
          9.39368969e-004, 1.19028043e-003, 1.52729533e-003,
          1.88019953e-003, 2.18208879e-003, 2.29816092e-003,
          2.18404713e-003, 1.67257979e-003, 1.01342669e-003,
          4.68270271e-004, 2.24586634e-004, 1.80209026e-004,
          1.89862345e-004, 1.96264329e-004, -5.35593415e-003,
          -6.64439192e-003, -7.68349227e-003, -7.96159543e-003,
          -7.64628639e-003, -7.33393384e-003, -7.55583588e-003,
          -7.18438672e-003, -6.07339991e-003, -4.75234492e-003,
          -8.34032835e-004, -6.19157858e-004, -3.78827157e-004,
          -1.24471640e-004, 9.99503187e-004, 5.35765779e-004,
          2.58443906e-004, 4.34582063e-004, 8.09865189e-004,
          -9.97171388e-004, -1.33941893e-003, -1.27247232e-003,
          -9.22721636e-004, -3.81555146e-004, -4.39678319e-004,
          -8.11292033e-004, -1.10015308e-003, -1.20088155e-003,
          -9.12779651e-004, -3.49392125e-004, -3.13893426e-004,
          3.42379487e-003, 2.70974264e-003, 1.52627763e-003,
          1.34655612e-003, 1.44134415e-003, 2.45356513e-003,
          3.04437964e-003, 2.20943266e-003, 1.77522586e-003,
          1.78210763e-003, 1.92101009e-003, 2.49265321e-003,
          2.79997359e-003, 2.29553110e-003, 2.59259972e-003,
          1.27373065e-003, 9.70068097e-004, 1.50684640e-003 ]
      - [ 3.81232495e-003, 4.05647047e-003, 3.94921564e-003,
          3.18435812e-003, 1.58296502e-003, 9.96458228e-004,
          1.09366828e-003, 2.49047880e-004, -1.16553856e-003,
          -3.37096310e-004, -5.09017409e-005, 3.84102808e-004,
          8.71037773e-004, 2.31088139e-003, 3.44570912e-003,
          4.07101819e-003, 4.33544768e-003, -4.46954696e-003,
          -3.04182922e-003, -8.90201423e-004, 1.15612382e-003,
          2.97640637e-003, 1.36318477e-003, 2.90255155e-003,
          4.65415372e-003, 6.09879615e-003, 6.53514778e-003,
          2.46079499e-003, 1.06556062e-003, -3.74695781e-004,
          -1.69396121e-003, 1.13330910e-003, 6.83921564e-004,
          1.24952203e-005, -1.05170952e-003, -1.85217441e-003,
          1.39094028e-003, 1.80921599e-003, 1.92949665e-003,
          1.97412376e-003, 1.50217954e-003, 1.28343643e-003,
          2.20228988e-003, 1.94175879e-003, 1.68665173e-003,
          1.27702311e-003, 1.39142887e-003, 1.71275716e-003,
          -1.80755008e-003, -1.29414035e-003, -1.34972204e-003,
          -1.36652589e-003, -8.96796060e-004, -1.46919233e-003,
          -1.49795716e-003, -1.57042604e-003, -1.51281373e-003,
          -1.78389577e-003, -1.88635394e-003, -1.89136376e-003,
          -6.14009507e-004, -1.26433175e-003, -1.20611349e-003,
          -1.81668345e-003, -1.62721623e-003, -6.74284238e-004,
          4.02615784e-004, 1.23719394e-003, 2.05318653e-003,
          2.54780124e-003, 1.88266486e-003, -1.05565479e-004,
          -3.05309170e-003, -5.60612790e-003, -7.55765662e-003,
          -7.97850452e-003, -9.24083125e-003, -9.82131995e-003,
          -1.01786004e-002, -9.35309101e-003, -8.10831971e-003,
          -7.09272502e-003, -5.93999075e-003, -8.60856473e-003,
          -1.05731478e-002, -1.12128239e-002, -1.04307812e-002,
          -8.85712542e-003, -6.72778487e-003, -7.12469732e-003,
          -7.00267684e-003, -5.70896408e-003, -3.45864752e-003,
          -4.04799171e-003, -3.27646569e-003, -2.60110199e-003,
          -1.92926358e-003, -1.09112321e-003, -1.88981241e-003,
          -2.40903860e-003, -1.59621437e-003, -3.88945307e-004,
          -4.03332291e-003, -3.52427200e-003, -3.09102214e-003,
          -2.38283398e-003, -2.76236213e-003, -3.19559546e-003,
          -1.24923722e-003, -5.24617615e-004, -5.34135324e-004,
          -3.00772459e-004, -3.89288471e-004, -8.42882495e-004,
          5.30672399e-003, 5.03555266e-003, 3.25749861e-003,
          3.25172278e-003, 3.81751033e-003, 5.82687045e-003,
          6.56701997e-003, 6.41988590e-003, 6.55348133e-003,
          6.41342625e-003, 6.08017622e-003, 5.58741298e-003,
          4.74678911e-003, 4.18976089e-003, 5.64483786e-003,
          5.23297349e-003, 4.32748348e-003, 4.44462663e-003 ]
      - [ 1.17031310e-003, 1.19103247e-003, 1.34102872e-003,
          1.38004136e-003, 9.75843868e-004, 3.69360438e-004,
          -2.14170606e-004, -7.20611715e-004, -9.10728821e-004,
          -7.96963926e-004, -8.84835375e-004, -1.17293955e-003,
          -1.39303389e-003, -1.09861826e-003, -4.80746443e-004,
          1.34866073e-004, 6.03245921e-004, -2.06590834e-004,
          -2.83574307e-004, 5.69479926e-005, 5.51109668e-004,
          9.11376555e-004, 2.98710365e-004, 1.05778233e-003,
          1.83200848e-003, 2.15336913e-003, 1.64313812e-003,
          1.96800436e-004, -1.15255280e-004, -4.53096756e-004,
          -7.51349318e-004, 9.42886167e-004, 3.06674105e-004,
          -4.75558016e-004, -1.23354117e-003, -1.84430717e-003,
          1.27005181e-003, 1.00580300e-003, 8.87575035e-004,
          5.58538770e-004, 7.64467812e-004, 9.25368047e-004,
          6.89653607e-005, -1.67993727e-004, -3.54357646e-004,
          -8.58460611e-004, -6.24452950e-004, -3.57695506e-004,
          1.39964605e-003, 4.09269618e-004, -3.06420552e-004,
          -5.33614657e-004, -5.81019558e-004, -1.39897130e-003,
          -2.54821940e-003, -2.03203596e-003, -1.34595344e-003,
          -7.88169040e-004, -1.69744919e-004, 6.73865608e-004,
          7.62603479e-004, -5.88217867e-004, -1.75169914e-003,
          -2.05070758e-003, -7.68337341e-004, 8.11081380e-004,
          1.18990277e-003, 1.35251076e-003, 1.48207787e-003,
          1.59293134e-003, 1.64771837e-003, 1.81571941e-003,
          2.16872222e-003, 2.56875041e-003, 2.69263983e-003,
          2.59429147e-003, 2.03896686e-003, 1.45404064e-003,
          1.12890592e-003, 1.19267986e-003, 1.40575913e-003,
          1.59329444e-003, 1.76538865e-003, -6.71823742e-003,
          -7.90614355e-003, -8.79015122e-003, -8.92305933e-003,
          -8.40299390e-003, -7.56734703e-003, -7.61300651e-003,
          -6.97560795e-003, -5.43014565e-003, -3.63476458e-003,
          -1.44753733e-003, -1.54685299e-003, -1.62978505e-003,
          -1.69688510e-003, -6.40914193e-004, -1.25853438e-003,
          -1.55900186e-003, -1.17930130e-003, -4.56714944e-004,
          -1.80082757e-003, -1.95459672e-003, -1.77399337e-003,
          -1.42906979e-003, -1.01420691e-003, -1.17070100e-003,
          -7.56205525e-004, -7.27843435e-004, -6.16666919e-004,
          -2.50955229e-004, 4.39587893e-005, -9.00057712e-005,
          2.47493084e-003, 1.20226573e-003, -3.54289019e-004,
          -6.17380138e-004, -1.17749281e-004, 1.55345467e-003,
          2.88060331e-003, 2.59618508e-003, 2.66683055e-003,
          2.72183400e-003, 2.50561931e-003, 2.31144275e-003,
          1.14042114e-003, 5.20707632e-004, 1.37763063e-003,
          1.90064637e-003, 1.65927236e-003, 1.66285248e-003 ]
      - [ 7.87826080e-004, 4.31223132e-004, -1.02996753e-004,
          -5.50825207e-004, -6.37391466e-004, -2.59877503e-004,
          2.30110469e-004, 3.81545280e-004, 1.74765009e-004,
          1.69746752e-004, 3.54127667e-004, 8.95160250e-004,
          1.42828352e-003, 1.55979348e-003, 1.24940893e-003,
          8.54992773e-004, 6.31421979e-004, 3.42556188e-004,
          6.85660401e-004, 4.81717143e-004, 4.93412745e-006,
          -3.77120101e-004, -2.55473016e-004, -6.01507898e-004,
          -9.49122536e-004, -9.06265981e-004, -2.72881996e-004,
          3.40896258e-006, -1.82412696e-004, -3.30740033e-004,
          -4.58205817e-004, -8.96745070e-004, -6.42601284e-004,
          -3.40154278e-004, 5.56611531e-006, 3.49431852e-004,
          -7.81251234e-004, -2.86607334e-004, -7.93087820e-005,
          2.21386188e-004, -1.59995194e-004, -4.29756503e-004,
          3.09002236e-004, 6.31192932e-004, 8.38833628e-004,
          1.31056656e-003, 9.97002120e-004, 7.19998206e-004,
          -3.33696022e-003, -2.06566858e-003, -1.05613552e-003,
          -4.78047616e-004, 2.01240997e-004, 1.45694229e-003,
          3.08532012e-003, 2.18090485e-003, 9.34165029e-004,
          -4.56638401e-004, -1.73293613e-003, -2.80051376e-003,
          -2.56265118e-003, -3.56297096e-004, 2.05273530e-003,
          2.14222469e-003, -4.55111731e-004, -2.93377647e-003,
          -1.36235391e-003, -1.53475639e-003, -1.67529646e-003,
          -1.91165146e-003, -2.45519169e-003, -3.33467685e-003,
          -4.44920268e-003, -5.33981947e-003, -5.87551296e-003,
          -5.49212191e-003, -4.72478755e-003, -3.63756157e-003,
          -2.79271207e-003, -2.32286681e-003, -2.19841884e-003,
          -2.19359528e-003, -2.13356270e-003, 4.62159421e-003,
          5.97226480e-003, 7.21206935e-003, 7.65345292e-003,
          7.43600493e-003, 7.45491683e-003, 7.70384260e-003,
          7.29184691e-003, 6.20865822e-003, 5.09649795e-003,
          -7.79098846e-005, -2.15094391e-004, -3.66646098e-004,
          -5.10333921e-004, -1.35947089e-003, -1.07371807e-003,
          -9.19690297e-004, -9.32470197e-004, -1.08434749e-003,
          2.29001715e-004, 6.23790722e-004, 7.08675419e-004,
          6.11957745e-004, -8.58322310e-005, -1.13001544e-004,
          6.80906931e-004, 9.01428168e-004, 9.69533343e-004,
          7.48523627e-004, 2.51743360e-004, 1.46378530e-004,
          -3.25850071e-003, -2.19650287e-003, -9.34780343e-004,
          -6.81825040e-004, -7.56189111e-004, -1.76665385e-003,
          -2.55173584e-003, -1.62326440e-003, -1.16392027e-003,
          -1.31007750e-003, -1.43914297e-003, -2.13896693e-003,
          -2.25654058e-003, -1.66912866e-003, -1.81220158e-003,
          -7.12391746e-004, -6.42783765e-004, -1.18080724e-003 ]
      - [ -1.12395803e-003, -1.65295287e-003, -2.17717770e-003,
          -2.32825242e-003, -2.23416765e-003, -2.00235588e-003,
          -1.70824525e-003, -1.63466262e-003, -1.47287128e-003,
          -9.54141258e-004, -8.77509941e-004, -9.86103667e-004,
          -9.77061572e-004, -5.17055101e-004, -1.84718039e-004,
          -3.55725264e-004, -7.22764933e-004, 4.83148877e-004,
          4.01174184e-004, 1.20438926e-004, -3.06801900e-004,
          -7.64617347e-004, 1.88371097e-003, 1.58817321e-003,
          1.15344813e-003, 5.07167657e-004, -4.76918940e-004,
          4.12972848e-004, 1.84573888e-004, -8.98966828e-005,
          -3.53123207e-004, 1.52971566e-004, 1.25697639e-004,
          -5.82112989e-005, -5.02764480e-004, -8.46797891e-004,
          -5.25730546e-004, -4.55609697e-004, -4.54977708e-004,
          -3.22594191e-004, -3.92978982e-004, -4.97551227e-004,
          1.57714676e-004, -8.25514962e-006, -2.63686175e-004,
          -4.24274156e-004, -2.71953235e-004, -1.34999922e-004,
          3.03848734e-004, -6.16291538e-004, -6.96361647e-004,
          -2.37606539e-004, 9.66910738e-005, -4.24733676e-004,
          -1.94478454e-003, -8.54199170e-004, -4.02439269e-004,
          -9.24050459e-004, -1.50391308e-003, -9.07273439e-004,
          -5.90430340e-004, -2.20904956e-004, 1.04769433e-005,
          -4.51235712e-004, -8.69916868e-004, -1.06528902e-003,
          -1.21619366e-003, -4.18512675e-004, 3.93447641e-004,
          1.15040154e-003, 1.64988870e-003, 1.75125350e-003,
          1.67362962e-003, 1.68933906e-003, 1.68998132e-003,
          9.43608058e-004, -2.77112937e-004, -1.31352863e-003,
          -1.90866855e-003, -1.99183589e-003, -1.98810315e-003,
          -2.07195617e-003, -2.16787565e-003, -1.44007173e-003,
          -9.86913219e-004, -5.98514511e-004, -3.38424899e-004,
          -2.63747323e-004, 5.41555521e-004, 1.10641634e-003,
          1.47087837e-003, 1.94211060e-003, 2.33414001e-003,
          -1.09090935e-003, -2.11951020e-003, -3.16070113e-003,
          -4.19809483e-003, -2.78112688e-003, -3.24453809e-003,
          -3.45281325e-003, -3.35624884e-003, -2.94475420e-003,
          -1.23627065e-003, -8.36836407e-004, -9.49244539e-004,
          -1.33522658e-003, -1.10455113e-003, -1.13534450e-003,
          -5.28052391e-004, 3.55940254e-004, 6.22412306e-004,
          4.32586123e-004, 1.67553226e-004, -1.17139920e-004,
          1.38614560e-003, -4.48285602e-004, -2.03848537e-003,
          -2.26985267e-003, -1.91571936e-003, -3.79498466e-004,
          1.38198771e-003, 3.12598143e-003, 4.96491650e-003,
          5.62105188e-003, 4.89860680e-003, 3.10934125e-003,
          -1.10636512e-003, -1.75057596e-003, -1.01842568e-003,
          3.46163986e-003, 4.58180066e-003, 3.41335195e-003 ]
      - [ -2.63458671e-004, -2.35640633e-004, 1.32454024e-005,
          2.87340721e-004, 2.00605267e-004, -3.10647738e-004,
          -8.56399594e-004, -9.62542137e-004, -5.54794911e-004,
          -5.30948048e-004, -7.69108126e-004, -1.46953226e-003,
          -2.18239799e-003, -2.35169195e-003, -1.91427779e-003,
          -1.37084816e-003, -1.00396830e-003, 7.48415769e-004,
          1.59667426e-004, 1.83168740e-004, 5.55730134e-004,
          8.19065899e-004, 6.66580629e-004, 1.15615141e-003,
          1.58818741e-003, 1.40055385e-003, 2.70206045e-004,
          2.53523438e-004, 3.18946346e-004, 3.49956448e-004,
          3.83845152e-004, 1.51416648e-003, 9.36108408e-004,
          2.14676053e-004, -5.13471430e-004, -1.16381340e-003,
          1.90145022e-003, 1.29083509e-003, 9.80180688e-004,
          5.38818538e-004, 1.03910512e-003, 1.41439459e-003,
          -2.49364064e-004, -6.65054948e-004, -1.03899126e-003,
          -1.75491883e-003, -1.32018887e-003, -8.87911476e-004,
          3.28488438e-003, 1.61232450e-003, 6.45534368e-004,
          4.30041808e-004, 1.16992880e-004, -1.17961213e-003,
          -3.29350471e-003, -2.22257432e-003, -9.36494383e-004,
          1.61198754e-004, 1.11373235e-003, 2.34186160e-003,
          2.12634355e-003, 3.07908020e-004, -1.71664834e-003,
          -1.97752239e-003, 1.65400998e-004, 2.25895038e-003,
          4.22648387e-004, 7.64421828e-004, 1.05090044e-003,
          1.55796891e-003, 2.52298987e-003, 3.97185609e-003,
          5.69956936e-003, 7.13587739e-003, 8.01618211e-003,
          7.36888871e-003, 6.14475179e-003, 4.52572107e-003,
          3.17508355e-003, 2.35727197e-003, 2.05394882e-003,
          1.98739069e-003, 1.86200533e-003, -5.61229279e-003,
          -7.12435646e-003, -8.56727455e-003, -9.09943040e-003,
          -8.84148851e-003, -8.31282418e-003, -8.38071387e-003,
          -7.61103211e-003, -5.87061979e-003, -4.09898162e-003,
          6.78246361e-005, -1.83075346e-004, -3.82101774e-004,
          -5.70873148e-004, 3.48379806e-004, -2.28861318e-004,
          -4.77178604e-004, -3.48307338e-004, 1.33190493e-004,
          -4.46886290e-004, -7.46028731e-004, -7.55495799e-004,
          -7.09431479e-004, 7.84889999e-005, 4.83865952e-005,
          -3.51254421e-004, -3.00901971e-004, -2.13961248e-004,
          6.10208372e-005, 4.74657514e-004, 4.52458684e-004,
          3.15371412e-003, 1.24747399e-003, -6.24893466e-004,
          -9.71568341e-004, -6.49358844e-004, 1.08742306e-003,
          2.77500367e-003, 2.45831581e-003, 2.68857391e-003,
          3.06505687e-003, 2.83551542e-003, 2.74055474e-003,
          1.09052460e-003, 3.24127643e-004, 8.51054559e-004,
          1.94825756e-003, 2.25563534e-003, 2.18631420e-003 ]
   decision_functions:
      -
         sv_count: 1
         rho: -1.3396499565059869e+001
         alpha: [ 1. ]
         index: [ 0 ]
      -
         sv_count: 1
         rho: -1.0850285399395744e+001
         alpha: [ 1. ]
         index: [ 1 ]
      -
         sv_count: 1
         rho: -1.2951812291577880e+001
         alpha: [ 1. ]
         index: [ 2 ]
      -
         sv_count: 1
         rho: -1.1657816219046147e+001
         alpha: [ 1. ]
         index: [ 3 ]
      -
         sv_count: 1
         rho: -3.0396596318474568e+001
         alpha: [ 1. ]
         index: [ 4 ]
      -
         sv_count: 1
         rho: -2.2468242888501468e+001
         alpha: [ 1. ]
         index: [ 5 ]
      -
         sv_count: 1
         rho: 1.5020212691312141e+001
         alpha: [ 1. ]
         index: [ 6 ]
      -
         sv_count: 1
         rho: -1.3178797841965711e+001
         alpha: [ 1. ]
         index: [ 7 ]
      -
         sv_count: 1
         rho: -5.3611479074196282e+000
         alpha: [ 1. ]
         index: [ 8 ]
      -
         sv_count: 1
         rho: -3.5753723922249812e+001
         alpha: [ 1. ]
         index: [ 9 ]
      -
         sv_count: 1
         rho: -1.3936013092112674e+001
         alpha: [ 1. ]
         index: [ 10 ]
      -
         sv_count: 1
         rho: -8.6445901215563410e+000
         alpha: [ 1. ]
         index: [ 11 ]
      -
         sv_count: 1
         rho: -1.9256161191579352e+001
         alpha: [ 1. ]
         index: [ 12 ]
      -
         sv_count: 1
         rho: -1.9309579773063312e+001
         alpha: [ 1. ]
         index: [ 13 ]
      -
         sv_count: 1
         rho: -2.9891531281011726e+001
         alpha: [ 1. ]
         index: [ 14 ]
      -
         sv_count: 1
         rho: 5.3417147130736673e+000
         alpha: [ 1. ]
         index: [ 15 ]
      -
         sv_count: 1
         rho: -7.7946368472786878e+000
         alpha: [ 1. ]
         index: [ 16 ]
      -
         sv_count: 1
         rho: -3.6116324091674668e+000
         alpha: [ 1. ]
         index: [ 17 ]
      -
         sv_count: 1
         rho: -1.4116150846546455e+001
         alpha: [ 1. ]
         index: [ 18 ]
      -
         sv_count: 1
         rho: -9.5952125231833865e+000
         alpha: [ 1. ]
         index: [ 19 ]
      -
         sv_count: 1
         rho: 1.4336737554591997e+001
         alpha: [ 1. ]
         index: [ 20 ]
